5
784
20
10
5
2
-16.019976941900396
-0.6385118886555778
-1.8363404832125023
-1.5340630738716958
-0.36538675660253866
0.1310938314685518
-0.29572246990304707
0.76173220335899
0.7988238974094761
1.1163053002081318
0.15964994718839087
-0.17836420675001388
0.7049574241473517
0.42347113232955336
0.11866493418534879
0.4696021198764526
0.5035704030739254
1.582892794973953
1.6156239916953248
2.136667458626849
0.6960089308846373
-1.201534150129381
0.5734860105840116
1.3214599408725847
0.1911581851866716
-0.04278910390106996
1.9584798143414357
-1.0468004269832396
-1.9134825150658337
-0.1403408765972699
-0.67868801809827
-1.8879942057574122
-0.9437745797696232
-0.6289776579269487
-0.9816567838380786
1.017564301004738
1.1481565077772886
0.14829817055640515
-0.12045585192193184
-0.13786445241647355
-0.002899221440319088
0.3248559726102414
0.6493743674160979
0.08597938617717324
0.7896172719031139
0.5609899556766489
1.1076682841785426
1.6230759289303913
0.5451397200096475
-0.7031591734995218
0.5350143638478976
1.355191027913174
1.4681186984251169
0.16239968794609144
0.21124704988498172
-2.1987030926177873
-2.775587767984703
-0.10607770062451151
-0.6718099339324338
-1.8661192079359123
-0.9464457784124412
-0.2880491039609217
-0.4881464627557249
0.6549535578674522
0.5840975433743825
-0.19180472913391622
-0.5471110283175211
-0.9969949728638197
-1.115528539072092
-0.442747828283217
0.39154399431533043
-0.10798754211099247
0.24473915196135285
0.34865361834681635
0.8663595248010322
0.12508107241332897
-0.1763667108111227
-1.0863303744234218
-0.34485996587493384
0.48850088905211086
0.618134403318521
-1.2127763936997098
-1.235047072638908
-2.843645026422881
-2.71194305255731
0.3375121973575978
-0.03703346527446745
0.3369155710237366
0.14684033734784674
1.887216579175016
0.20069829463938885
-0.6199414206181884
-0.6079743272887382
-0.18900542745615076
-0.42552652782715544
-0.046193337196800646
-0.10371298924901783
-0.2801030389312328
0.4397608109700628
-0.10221585862570395
-0.2550539102881388
-0.011084379737011813
0.26410279698195255
-0.8259507226750766
0.130583896332903
-1.139061656901447
-0.16031702241205034
0.6158157163855634
1.1480865391808968
-1.0174492672135278
-0.9883225524628377
-1.8950960714246696
-0.814661741145511
1.043180161546094
0.017776432593914135
-1.1558389589549967
-0.4509043889951699
0.6097595283699508
0.4492417968043524
-0.09007565330227814
-0.04707879130642769
-0.46617609624708695
-1.2962389238440313
0.5040095814315162
-0.21805883180491442
0.5004850631454747
-0.7661025918653442
-1.1765896427399776
-1.0577134192420246
-1.350137813887461
0.25242403660832125
-2.3493196305817556
-1.5824281464283354
-1.4994365759508712
-0.4156555592511732
0.3209154580509713
1.3083438123532496
-0.18649556803900275
-0.4811803950737697
-0.8961641370357607
-0.07734971508765569
-0.5916810526705757
-0.39696966597734756
-1.0134805252473191
-0.7240808516754841
0.2655777391118651
0.7396294850765858
0.9852256031148505
0.7412865353072009
-0.1670460550535729
-1.065578070171176
-0.30049614199130126
0.5624865453126913
-0.21268600384491124
-0.12840043781013227
0.021488985406511174
0.9187397296760065
-0.30755828532441565
0.0757914099450432
-0.5433345729350552
-0.25603834930501884
-0.5449577132777338
0.1125862770466466
0.8434488586364951
1.5998645441143506
-0.38097245815887193
-0.46195821691098643
-0.4667754089537638
-0.19620131294406998
-0.4388405462284571
0.2839207159950516
-0.4228176045503125
-0.7045027773148292
-0.21465416670722312
0.4258360454629069
0.6173424340778177
-0.1645344813474199
-0.55649551886669
-0.06938625955191352
0.7895817318766667
0.7601104607602647
0.7482432256090014
1.475128781732609
0.8216998930771459
1.3258840662724445
0.7414815201213492
1.4909899760995367
0.9020566689116125
0.6403132334229968
-1.4951233962197192
-1.2227612105343586
-0.17225548780953376
0.8954932981952053
-0.8592141980064719
-0.5921857629060534
-0.7520580188617306
0.5118692249487055
-1.0971868213070781
-0.41201261587446514
-1.199931891868924
-1.9945449228321175
-1.234716687229354
-0.42540898436572094
0.19628708496066094
-0.2437917638057644
-1.0492653470393682
-0.762280286973618
-0.16411296842586173
-0.6898721932408138
-0.19537688537629097
0.9155616734090456
-0.7650206667619707
-0.4546594645226244
-0.039425678130251524
0.9994697601754445
0.6240979270975584
0.13703368597377952
-2.482993422992652
-1.9619360903476049
-0.5121752873192817
1.0559225963354903
-0.20234016605308927
-0.45561661151487826
-0.6950686909886022
-0.21728568144818808
-1.1905895167355793
0.26548343260445634
-0.7764126062781715
-1.9139497276324666
-0.9914109132606083
0.5097848487526687
1.2663908230662633
0.8916805574790357
-0.4297089185722282
-1.0220691833076316
0.003689791915493485
-0.29083831287251727
-0.6675252490430954
0.2844679715413082
0.2813476540038151
-0.5038846741289489
0.8216484309548678
-0.09746398653520189
-0.34245240236927443
-0.30797152297223
-0.6477273263882559
0.006634352609580797
-0.0586697326355971
1.0871463903441563
0.13928537659728077
-0.902580634296912
-1.5213313071755807
-0.7756462491798783
1.6859462494184416
0.09789867273336056
-0.3593730977213961
-0.9831240258729724
1.4068897422826419
0.31715644427546774
0.41230023275022143
0.20567767999489905
0.5172436053807069
-0.4634995466648577
0.0859795520994969
0.33084340694046577
-0.513871086851367
-0.3066359400455517
1.4881765791813422
1.2114398032072684
0.5097342340586632
0.5197617395972701
-0.3192155717838236
-0.4288246532928761
-0.9049482470527489
-0.45236260550409163
-0.2653286372449944
0.6002746979341486
-0.7784914093039512
-1.623787146613266
-1.1791327978306185
-0.6907154276260166
0.5731253141777451
-0.3689886792894472
-0.4941156280797679
-0.47876531714458637
-0.2673855922068257
-0.32745470958899053
-0.23511963903375352
-0.15241972694097028
0.4271886223031271
-0.05503568575091629
0.34147114337667195
0.60758608262604
-0.9717816047199929
-0.769421496387523
1.1072931442982104
1.3354001254025514
-0.2793819082667228
0.46213493466783756
-0.11565613989338215
0.04473601274099085
-0.6236589281452912
-0.49127236245058403
-0.33584955301633634
-0.03202034262395053
-0.615469865773949
-1.5484557743708847
-0.6735131801564067
0.1957813561245206
-0.22189747220289535
-1.1615278835002327
-0.4045825591086071
0.1420139592215109
0.4360442439739022
0.5924717079064338
1.0810842603455666
1.0376270036018491
-0.24369578617434284
0.07886888878623632
0.8333775019267694
0.7772376846584577
0.5330961053801376
0.9647427788843627
0.2748697836851943
0.13992652343646853
0.12309396236023235
0.7116415719367226
0.03218095150302018
1.0506506093860328
0.30038442322940617
1.0634601061554687
1.1907132444997968
1.8063074860512727
0.16582151978357257
-0.5104172438104374
0.09988695636757482
-0.07445683802861142
0.1281036529492509
-0.9803450191925666
-0.110066755862642
0.3716560475065564
0.4168104186825256
0.1230747923540331
0.34154780530673745
0.5843695487461867
-0.057681983484265995
-0.20913411885723576
0.12463973992458083
0.20883513310213278
1.2258316029956045
1.1786036935946616
-0.873022206523142
-1.332363218884551
-0.4571810268635512
0.3803261262251911
-0.5673572986830048
-0.013542994235504147
-0.8454725239426335
-0.18904606411724276
0.6942458524119823
1.9385043337554626
0.5520201125499334
0.2148449836285062
0.7826282874804911
0.21691400187366536
0.595192433345973
-0.3437689077898876
0.03294765705443628
-0.05600009138211735
0.2216015208086942
-0.879298237169775
-0.6481590171730631
-0.3446937315633467
0.5778864148583442
0.14911428022195317
-0.4116118623211351
-0.043058502766013314
0.9263868231651584
0.38263234905563454
-1.2372782180944393
-1.936800438403223
-0.8000423318155175
0.7282132601726975
0.4010645357376533
-0.27499862087082433
-0.7821226756957624
-0.8018130039654457
0.6227512152020893
1.914722076006395
0.5284089797314969
-0.0349253929183085
0.182456644132945
-0.16197138956860588
-0.29802260940395575
0.7237057944128327
0.6999741933567515
0.02682201009031142
0.33336275966831
-0.06949555245549732
0.04136248849685446
-0.03942766940242237
-0.4334812148234571
-0.10139337223701039
-0.2400570522047995
-0.5313052395509019
-0.7289199480623115
-0.4569074430262202
-0.17077799502155913
-0.5110492487686205
-0.97968583127066
-0.26708942572645694
0.09288204020591857
-0.19837287049397098
0.06592468959318527
-0.32320684674732586
0.9616097202097896
1.7711627274216737
0.3929788020118103
-0.6092965734008255
-0.18126558607093213
-0.8646296583091851
-1.151034036570028
1.9009975653127467
1.6796907657554359
-0.20283716730827514
-0.06622694291920814
0.3192132960780172
0.28888476858793166
-0.023644187737324494
-0.38830127848965545
0.7052862523823897
0.9408883841950514
-0.2728770960639743
-1.4517829019458994
-0.30214500453290144
0.5774451396735794
0.4422940422813377
-0.6992606732007483
-0.1708894585395556
0.21122459264986507
-0.3630459739539425
-0.255934415307496
-1.0594011207718397
0.05618728335264231
1.4245552976001354
-0.24356834440302602
-0.9526709538704244
0.1289880731546465
-0.12962792743634133
-0.2725246442048671
0.20188646642842634
0.2793949662380228
-0.9729365008087439
-0.2572075678181606
-0.7401404913160832
0.04054917484324461
1.2345763423933047
-0.10671503308340187
-0.12401321481786358
-0.534953262577484
-0.5598502498503696
-1.4501044607527895
-0.2708644541183711
0.8468966748035748
0.08940470939710883
-0.3699824296360534
0.26267082954591603
0.3369187347471101
0.5131040032195086
0.6604931295493205
0.5508980144851994
0.2548393064505405
0.24603333782030462
-1.1579360427706284
-0.8390238585850037
0.04103597739207367
0.14655868112829645
0.5520484428038346
0.29715642641843476
1.167499763421453
0.021358320534617503
-0.07444412587467873
-0.6341719200340759
0.48416631199875837
0.8213224748722913
0.6603605783749985
1.0089041021695053
0.5933046235731118
0.11822738712414525
-0.3855829529953738
1.1789078839755043
1.6882597434458622
0.9821901407221278
0.5964814892754358
1.4184954318107845
0.5035449241725923
0.333146464790116
-0.35535712482040716
-0.4168436250542319
-0.24310010197276638
0.2301476158435961
-1.239496578309447
-1.0015950860706275
-0.10093022446293078
-0.007417569869141769
1.5611814250979787
0.7824006536416197
1.217991218682041
1.1751019019323277
0.7659464844327178
0.43940626826428303
1.0203756300294609
0.6228851714005506
0.3553217029252366
0.5707264571728135
0.6534625347255232
0.23664256595374566
0.5239665432935409
1.0042072193539042
1.0667827500294689
0.182869381981981
-0.34226114824209886
0.9121686278707797
0.042472581534610455
0.49788849567837656
-0.45724861990056365
-0.03069587853828924
0.42708673734248376
0.7652538910045601
-0.17818245716399797
0.4284366371437254
1.1766411669347296
1.2470042812024005
0.9541855882146468
0.8948314663296278
0.2341126668247351
0.5748836805624141
1.1939738843409682
0.6131469295384878
1.2643723963610192
1.270567208207507
0.7669483381814581
0.6140854465346774
-0.0714424192272155
-0.39354558587690036
-0.34897395406821535
0.20006328874549212
0.22411546862471446
0.19370315994163573
-0.3579737263143674
0.5401500376666282
0.2255161951678644
1.1265577145238581
0.5565363024604263
0.5546019306359962
1.3201878263324864
1.5176977274875665
1.169421029654137
1.6808683911076228
1.976197390806755
2.1311570040138497
-0.3138243926719689
0.45449051336932433
-0.3585280512554406
-0.32946294141850374
1.451483632434123
0.20441718103004436
0.6259271174399785
0.8669566371306688
-0.15130426601981226
0.3431253256149234
0.2862518492182121
0.4939277223485253
0.6447930997252184
1.5858081152605077
1.910551968855954
1.2893398466542527
0.3536169733505885
0.5971801900600336
0.2298651106725739
0.561313794993937
-0.4423918447401367
-0.4286272958204598
0.6244558167994283
0.7326984998909843
0.3389471415463637
0.7722991823770197
1.7144078104663474
1.0042674698506868
-0.9139248675836552
-0.055368007964066594
-0.49731330948241015
-0.025943149923731642
1.9017905516539453
0.5640773859006144
0.4006641173882323
0.4536109514294868
-1.989201588444175
-0.8813008247584994
-0.6310811726177997
0.061131697624240935
0.9796717741203408
1.6306777361596771
1.9778980739872212
0.8833675362939644
-0.21582207769422496
0.5065699092372526
0.4542528387181397
0.38695514079086973
-1.2847593941845594
-0.9642450241668342
0.43325810820022
0.6806814291058199
-0.4397823482796634
-0.4986758030465283
-0.762857390664691
-0.23370995572116712
-0.2759405128874907
0.1476262606989401
-0.0205655187181356
-0.15936186097337263
1.385912850800253
0.7689889558242861
0.49513126745305847
0.4662700661643879
-0.43412866734899985
-0.040407072458151165
-0.21697126638442066
-0.11131335744398875
0.2515701460369338
0.1286210563984322
0.9572123047739861
0.5786315185933244
-0.5314002084965618
0.12322725435945536
0.8311791519283582
1.6903582035726321
-0.08446263575784776
0.4212080822062256
1.117343435567272
1.3850474113382822
0.2873997347399239
-0.26507638792298044
-0.5696807689803712
0.49806959718706934
-1.4320699782540038
-0.16236124956591
-0.47380597939540975
-0.47327770382478107
0.7342118722897983
0.7075667001270745
0.7300453261627318
1.0672357183152934
-0.43863317971861576
0.036330129109864766
-0.3347674186300978
-0.10025278990000645
-0.12645830356573434
-0.17154731581926647
0.9393510761315821
1.3877066413151153
1.29037505627732
-0.3838175461928268
0.2065300975323323
1.9166851503801774
0.15775691697480862
0.39533358698533416
0.3898076181682774
0.13417438701994447
0.1962286801079353
-0.6943886576319434
-0.43310095374301494
0.8728061171347243
1.0655542042968207
1.7080525926820787
0.8401582240499286
0.6418514004362236
0.5726049497136086
0.493380381009758
1.5815554877612734
0.7543731092062137
1.115153894768552
0.27271162841292507
-0.8968682605680979
-0.06889181843901104
0.08510469730760704
-0.3835314801466104
0.00870079889748354
0.2014427367277286
-0.217366371076046
0.1739774418050179
-0.21897826007745258
0.6330252898293149
-0.12162561699615693
0.7868088235938668
0.6580180746847286
-0.7833693066090215
-1.2656984106195603
-0.6196906953527169
-0.1699616609547143
0.4249186401965996
0.9881929379063439
1.35539678334153
0.5218457593330387
0.2854523192474048
0.5079257211814128
0.7627534348439095
1.4950786178159603
1.3911465068568671
1.840912113815974
0.8025690161889467
-0.4103463031884765
-0.22204365194048273
-0.34818862458429556
-0.7051428297992758
-0.3429005035164114
-0.6578695653556751
0.2779979592655285
0.8809428722939936
0.26615040730868145
0.6658131321450901
-0.820880290557354
-0.46268788790833165
0.005489024961211728
-0.6792278835243475
-2.206758397702751
-1.2178474351635693
-0.5751175159597488
0.07341950621042713
0.20258251456711215
0.35003813733215733
0.012688726376873762
-0.27492504065782736
0.0638402778350182
0.06293749633713537
0.6855444120525644
1.0700373407763748
0.6933277071057846
0.10957027878538861
-0.4756256084145501
0.14532718269874018
-0.6197162050225604
-0.4865305667038722
-0.11697201568493408
-0.12870975032241427
0.24373180905433622
0.18327367210384665
-0.8673475914560826
-0.6024297417600104
-1.3825888287994386
-1.1906845905878491
-0.21602708924492428
-0.23316904067900143
-1.5766589283438137
-1.1118631304380249
-0.7511753597822647
-0.03660958641903424
0.9413446555103807
1.2856207121427154
1.3055685092968596
0.5292635560837469
0.9208863813906054
0.48172859412244917
1.0817077454926631
1.7411488898644947
1.7503178558376058
1.966798778276678
1.5486564196303039
1.4670950298530903
0.4128194269233038
0.3269606136611027
0.2747312255400607
0.32667665798950296
-0.14545300038895556
-0.4710210017586805
-1.1616363250777386
-0.4717506887681878
-0.47168396869394574
-0.08513231445503809
0.9109243053336443
1.186604191053765
0.32253514574313674
0.08863639992631027
-0.122144202727317
0.8438060702546639
2.589191152871403
-0.010573284914215327
0.0843972692308765
-0.15270413381318315
-0.27730379600161953
0.3827163761743061
0.537305900582098
0.25494581071966477
0.1794011384405702
-0.2708502452672183
0.22251175952716046
0.2001565192165016
0.13192852524276188
0.08704753460456434
0.4841760824575068
0.8202683558388658
1.0297055791176124
1.2804956110710157
1.0933669266278245
0.7072132316379437
0.5377002260575093
0.979165365652666
0.48385020485668645
-0.09356103269610956
0.1649248424609452
0.1314623193525913
0.2678527447272399
1.251945930176657
1.4282151165410915
-1.0102645666027474
-1.068868331605632
-1.0170471054681194
-0.9650638000337806
-0.0561601320696871
0.37608553233043657
-0.5575579817883495
-0.6239119204616486
-0.32317578467742075
0.1074280904432866
0.2565508328139412
0.3044166938246856
0.35622764019392683
0.6625514892889641
0.6832231464175438
0.5131452586583677
0.45638257782090014
0.2728182270769984
0.0654362384689892
-0.2900477656629557
-0.28062650028427655
-0.5400704986578985
-0.4962019094190893
-0.3388331769947494
-0.18582056740987876
-0.2803345847958785
0.3488556941296332
0.5505428066524161
-0.6909676361201259
-0.7780861679033947
-0.25544229148085407
-0.522582945210682
-0.21955467864268957
0.010485701976012585
-0.4869324923454293
-0.5594567389409315
-0.295300132207015
0.08841845969717088
0.45030140693298276
0.4844597124520694
0.5814383136877073
0.7846175824742218
0.2152230675203377
-0.2380124136046442
0.22398005297653292
0.455860907392049
0.5873274170167878
0.4566814877073993
0.22672391772179043
-0.08385853902137744
0.039037007542141934
0.18516390753841383
0.04983429934642375
-0.22034419616228457
0.0641986621985685
0.44092202205695946
-0.15164942342943127
-0.3861303353687294
0.07380929680982573
-0.10916558884360196
-0.24312393626808143
0.03297847873504377
-0.03565396000865223
-0.11590690294702458
-0.09287541309620018
-0.13278226953546424
0.17081383300496356
0.30417330616365484
0.5490477970731581
0.3074015249712705
-0.06950500968694291
-0.19203669561885522
-0.36472978015501256
-0.3633219206966602
-0.02549447585306511
-0.11328756012902444
-0.01868979978470971
-0.2574792555351802
-0.23140562839757958
-0.27040172481566493
-0.5281328900223367
-0.5575311372082515
-0.19406350733330766
0.4155717836330937
-0.19389488692992057
-0.16029597619106473
0.3861302421822001
-0.1411039309171638
0.09918715506464193
0.20944803890217747
-0.1921888897066896
-0.26373185721060827
-0.30263867676194045
-0.09402197030308897
0.07968061147449512
0.3250284833151103
-0.14680452192349688
-0.13122166659967238
-0.1974317175373422
-0.0192677458933343
0.10066432535629485
-0.42208056342545747
0.09640971400056877
0.06505745320298771
-0.13458698187323398
-0.1496871260219906
-0.05745455673622095
-0.09209613645285053
-0.5957804719797248
-0.5968456286772766
0.06757826277094522
0.7874172417635048
-0.06218679460923748
0.02847745760409247
0.40680473063670847
-0.06995492724514074
0.3512563810699696
0.428974408141849
-0.0796070721635083
-0.05679663891515586
-0.22993094160537106
0.10515513808668255
0.4451528617062935
0.04938247144352966
-0.21778072118204547
-0.18964536377477811
-0.3233139358683439
-0.2465026224063732
-0.21852493865927516
-0.42334834168299246
0.25759222512963037
0.46066292567037087
0.27806134707877106
0.0031917550761789704
0.10761950071238895
0.4762500476677374
0.054579197660868765
-0.4319310890862737
0.1527429015749969
1.0191557974339573
-0.41462075222011946
-0.6477684514500808
-0.1747501703532169
-0.03161434427817924
0.5013543617941051
0.27121152780718993
0.10795175339448798
0.3228584886503964
-0.3715392795387218
-0.40531291416379495
-0.32650263299585003
-0.6579462055319508
-0.5315297527666734
-0.22645619971182074
-0.35444269198998274
-0.2938873507874142
-0.9030078268804155
-0.9296083598796994
0.0947039402709796
0.7085930177176634
1.1466262018263254
1.0795525422335732
0.5791708976918275
0.6662135652980412
0.3868572574394449
-0.6141688284053588
-0.15848099179631678
0.3485832010117804
-0.5512078334325111
-0.5924819442601887
-0.18984232179499716
0.0745846195959887
0.5974386712617061
0.11933945577112186
-0.038327342630453606
-0.16700373784758188
0.04639912794565922
0.03155064308553049
-0.41869773209153804
-0.5397153728927173
-0.5198348698862383
-0.7232202738123059
-0.8525468930209197
-0.3445290960998558
-0.6458181099210435
-0.7534552639546098
-0.13725364913718863
0.5125969294450647
1.4023670990061445
1.397036665251242
0.5197938282247073
0.2680244758137982
-0.09608068604924717
-1.132324108515816
-0.7874024924935681
-0.4268284281561863
-0.7217757068733497
-0.6056708008903764
0.14454493717710218
0.10109293038286728
0.6269128383309562
0.5285527925303364
-0.09427550274055686
0.1068833564809201
0.09616142847300849
-0.21515619386538626
-0.4701765983810448
-0.6116497193932043
-0.7034882763159827
-0.9523595540290767
-0.9214256108293515
-0.23211280120138847
-0.7532535361099094
-0.2827189609613736
0.2293967432947096
0.24572542406169634
0.567453320417707
0.31074084465887897
-0.13612227683725875
-0.14625873929057992
-0.6158332314161313
-0.7349538162818933
-0.8321172031297485
-0.4985084880860919
-0.9732485526802743
-0.5871427833757129
0.011762824449940836
-0.16074572576288199
0.0789327169766674
0.8149678012558672
0.32260668732876346
0.12503736985633357
-0.6075053963195006
-0.49082389010106664
-0.3949744241090568
-1.053294693493181
-1.0490009186586706
-0.879065605223731
-1.2851647299641549
-0.7837489345860558
-0.3995845717005318
-0.27048397251479256
0.20708915451166895
0.208367024887645
0.6421274351600208
0.597038786407776
0.10041499100590401
-0.6422657294327785
-0.9334924471753411
-0.8942766625951425
-0.7235995336043162
-0.21882678389239105
-0.4510788496518284
-0.5615766335385443
-0.029811924774819625
-0.12561886224152088
0.2533151898452512
0.8995113143055159
0.31120625575251876
-0.09641859600817308
-0.9729360399902821
-0.6053412444118376
-0.25125222240414674
-1.1240283304096368
-0.8287379767553698
-0.9955357648290041
-1.3424876091639277
-0.9128932349132279
-0.9016276748130972
-0.7815587287125135
-0.3683410877327855
-0.20723609610731808
0.36774793167997893
0.3182619243448743
0.08236269942599378
-0.7461038757591808
-0.6566515265350333
-0.6387134792265541
-0.22309276994067792
0.08794507172036593
-0.7269330862030018
-0.5028563059149294
-0.12135079692987631
-0.3680031060966467
0.024197085309036345
0.2757964900382699
-0.02570939542076633
-0.0318733179272417
-0.3864246399331463
-0.09054802849886043
0.25845590158337206
-0.09526236809158539
-0.28353477872208765
-0.9192344122724156
-1.185113595022845
-0.5047463643308989
-1.1854808317529235
-1.4980469349958436
-1.0383176348706196
-0.8205365246673607
-0.1601574993896694
-0.1230768739926161
-0.12349223476401881
-0.5856367441995652
-0.20839505352310253
-0.409208599990906
-0.06292825131626929
-0.15999092845494584
-0.922806606257284
-0.449583554228528
-0.40860174074903033
-0.8388028486592046
-0.3464831622058609
-0.19153096324132865
-0.3079771235944968
-0.35627852874318544
-0.11581711342251733
0.41161953513408267
0.7222930610919894
0.7597788469897296
0.18717560357042917
-0.3034375409909613
-0.1843285830523376
0.23853931937780193
-0.45339396485442324
-0.7759846896023779
-0.6770981539429438
-0.5735646674703221
0.0498326916358009
0.19902763558592074
0.028721907037538057
-0.07753104113756173
0.19946072822861496
-0.1756339033880178
-0.23420034594678826
-0.43675837121303585
-0.8712364141729501
-0.5363071450518574
-0.7789943241038096
-0.954712781313178
-0.6796595501312885
-0.7767260793913431
-0.7617598315319809
-0.6094717063400892
-0.0646208871704552
0.02724556876599144
0.29854708733631274
0.709381667564151
0.4654227499699074
0.2491177551826972
0.5920727237309565
0.5670635261355973
-0.49705519801483555
-0.801363982281539
-0.7458996664858101
-0.43147601087568305
-0.027468939583253683
-0.07221254283298843
-0.3422086747336758
-0.2120996546626874
-0.019398117158278886
-0.1099470151177073
-0.2060008340097935
-0.3830949291402852
-0.42994856429745704
-0.4007461186797591
-0.7913020442888521
-0.892465923177187
-0.7008143470624926
-0.9206136717784233
-0.8392062069778583
-0.14937389140101548
-0.3445825464929915
-0.40198901457081904
0.12424370958559967
0.4972850541132492
0.5866279407849685
0.47428069347576196
0.5673677906440385
0.5725544731271671
-0.6140470984547028
-0.5606203324836766
-0.5242641866289685
-0.3926409474663201
-0.19978862638146097
-0.08499069942867449
-0.46919983257252906
-0.2891753952592964
-0.297841320028365
0.13273784788384346
0.14187991050816814
-0.17496219350263792
-0.28901546855979465
-0.26716714983220224
-0.2867100577570534
-0.5485329507535679
-0.43187385823184166
-0.8314075999378551
-0.7675126077606935
-0.025693295854539368
-0.3538991825105932
-0.37951882512292495
0.5530180392480833
0.3001926424438709
-0.06910264655560239
-0.11807811805266157
0.30326703237961306
0.5054045552121205
-0.1872298092765691
-0.5449011922950282
-0.7441640557922377
-0.6157421637523464
-0.33583134753689575
-0.1568446025238185
-0.3709698300470801
-0.3967288520721019
-0.25618834653836775
0.3587584464099985
0.29102830279767916
-0.4833906563534471
0.1594590586788224
-0.19567517483701952
-0.15195205453216304
0.003880303996360123
0.21744220164116967
-0.07169400635252236
-0.4308446279047855
0.0038128168595356125
0.020004154044592777
-0.37160162999493884
0.23228259728316344
-0.26999166667974395
-0.03676448598559904
0.3147859684649391
0.016253907589726394
0.5001693678268642
0.054892800816981745
-0.38515039372175097
-0.2631911941064332
-0.5635329216809233
-0.8223062457628284
-0.3591144563744415
-0.34195924350941537
-0.5157156951789469
-0.22112925548128853
0.05711907769884904
0.38238990903659875
-0.0065949634123013
0.10930692626888856
0.07647826510263274
-0.20198467839765763
0.24863824148036287
0.4877605319684886
0.4647625065726924
0.028412534115191873
0.3202188808667347
-0.2801835941011607
-0.6909567969659139
-0.49054719172287475
-0.998218144859078
-0.49539072989685085
0.07184769028988791
-0.08606865010294651
0.29377991588039515
-0.3594804147429526
-0.3810103429702188
-0.07191252470931704
-0.4001910476613261
-0.36789708304343777
-0.1354323742255865
-0.3308278327290604
-0.3409065674855612
-0.13613125017235547
-0.014587371044173352
0.0681934118803551
-0.4011463460436679
0.032383556834989266
0.13580237902791117
-0.16812780989662382
0.3652227884742065
0.33838039914303514
0.08275645173828479
0.12243515691775012
0.25876466859019054
-0.22928690318907444
-0.8024600235365494
-0.7776406819566337
-1.0236894483313073
-0.7046036068922884
-0.3960532456433238
-0.5732810048375234
-0.30064708087616177
-0.3536210955425589
-0.33842226979098944
0.10284165212358491
-0.3511369690345852
-0.26121225701402645
-0.37749409197645206
-0.3238218063067351
-0.1512427624017049
0.08858367688998714
-0.2635637539563397
-0.3893622391346493
-0.7925359669088767
-0.02798554985422504
0.09639378110727284
0.25475914951901807
0.5498756607948966
0.07205992361523751
-0.4035472412584055
-0.4104182501724714
-0.13487686047511552
-0.4953339989251868
-0.8090747540944977
-0.4527841783106883
-0.7374846535673194
-0.6682328067303256
-0.6365005299366407
-0.8940072266789844
-0.7837717658090037
-1.019391904220804
-0.4667660072575839
0.12202170296497879
-0.19067996511032903
-0.5243551052429712
-0.4592676669448088
-0.3602834778680199
0.04859344432579741
0.2005339963870005
-0.29107607669176705
-0.2988611002606397
-0.6471550616351861
-0.26259567536010425
-0.4305495453130719
0.061354834445724475
0.39182566398657803
-0.0091612418138287
-0.3188598941233491
-0.8698182941238128
-0.4181171457779641
-0.5419255599836225
-0.38752181485844983
-0.2431131882011087
-0.6203546942780529
-1.1383512131635818
-0.9936292671098592
-1.1272523661482228
-0.6720890336483479
-1.2463791951739807
-0.6296360202439762
-0.10504714852341829
-0.12279858868662845
-0.13497557683783667
0.07149018527966128
0.0013881555606513136
0.07320491151098793
0.39740526482144334
-0.019126733443160664
-0.1746209271007138
-0.28601654214588645
-0.4615662902021274
-0.6751104480916604
0.07774824274230385
0.44256368577100696
0.259168152912059
0.048375707201321914
-0.7036727856488575
-0.2724716549412304
0.057215358351998064
0.4913685618873089
0.4104188272283799
-0.01752414828078059
-0.5663223802607689
-0.5139297680615097
-0.8599181797717294
-0.4331874352326557
-0.7222653035987752
-0.5918429743362736
-0.6536845515700059
-0.3298164279723192
0.3226897718505743
0.8634656760931833
0.2998206846100915
0.04283023594663705
0.7742662867980253
0.35269093634162424
0.5073059588655906
0.2588598876470842
-0.4954620644700478
-0.6410751864534108
-0.06810474731540853
0.3210319849396422
0.6974134774886124
0.4709129950445764
-0.5195954817208718
-0.2964889060540411
-0.046953760350270234
0.0674206829026975
0.40485054671681925
0.6552296944477976
0.6155868775173757
0.5691255387062432
-0.3651708358278332
-0.5854537429298589
-0.8565349717536712
-0.9133702468713227
-0.8345207120138918
-0.9174775746290725
-0.1425489082215278
0.36935575482017663
0.39847528584778996
0.1879556741161326
0.5191953494467172
0.19792800462919274
0.659434666532205
0.5138534025776124
-0.48089531762677445
-0.5929828755551404
-0.20867206153982154
-0.0027183457413765136
0.67089066020145
0.6370517401361472
-0.43312437515134916
-0.3747877641885836
0.04243942539546726
-0.3311910183092493
-0.1245992292371755
0.1381476506086693
0.11660820681553256
0.05803842470005004
-0.6549124694883058
-0.8392539760293631
-1.1200510630890426
-0.4199891807767444
-0.3104775007127562
-0.6177011972446634
-0.4191390180782598
0.07102397030471555
0.572014127071272
0.9641156970704462
0.01920804026752463
-0.10401511866312521
0.5271414012128078
0.6024750366050381
-0.6978785351994218
-0.838758797764387
-0.1420431923173959
0.18464040502423815
0.27294331721397613
0.5516444707490661
-0.31588994022560934
-0.13494135273566044
-0.1674795657093329
-0.11602211769246809
0.2868370082576396
-0.1624662872303968
0.07186786554522545
0.4330988754661397
-0.13492375105548407
-0.2377166649156217
-0.4309914549887471
-0.2678744929034867
-0.24188547077432182
-0.23776477669999777
-0.12189225461546295
-0.24686808293035314
-0.06867668616464659
0.42669167034348926
-0.46882134856034086
-0.2854814759272949
0.007565630647956977
0.08962289291357903
-0.7468957912164051
-0.8793299546540715
0.059839371002264725
0.23116860681737572
0.36601501225436417
0.6449063420381407
0.18945310244105787
0.2800049561431675
-0.20008586857213106
-0.1255567899059073
0.23113449671792305
-0.1499596552465487
0.058324278527677575
0.4316086460393756
0.26650005626662054
0.43434845381052767
-0.06601719568400952
-0.07752275264332889
-0.19149749887528317
-0.292795988310741
-0.1229711863945299
-0.1389581667459173
-0.4110346551192913
-0.15924768758095204
-0.2579352527799518
-0.17806548260863936
0.041295854138414134
0.18318258045211178
-1.1272438573725232
-1.3659917973097293
-0.4601965532325564
-0.22780409117168063
-0.1285698893857526
0.11530285410681562
0.06574317847444178
0.4298563838696834
-0.029963960554916236
0.01596353507637553
0.11107196180870643
-0.2725526207348848
-0.058075041933526
0.1793250911564037
0.5771238550255727
0.9086808248390833
0.4034903508575066
0.39653655841214197
0.24769379232416652
-0.17282465169051842
-0.2247302826530147
-0.4282463422962475
-0.7740872542365851
-0.8095298782912441
-0.7218573880998944
-0.5809694066559783
-0.28675781779117054
-0.09564204908344774
-1.023204838066902
-1.3832830210408529
-0.613908518298664
-0.30269441070645886
-0.27839205044104215
-0.1790946286477313
-0.31104439015424107
0.10523950794806045
0.2896894151972762
0.21475785568791061
0.11760985164266731
-0.11358074983349245
-0.011848023953085778
-0.004514317874870937
0.4827249033273221
0.8952651041568862
0.8546475214650062
0.9866810147810838
0.8963243584671945
0.30934274614913454
-0.013474157213414033
-0.15727586408382302
-0.6244746579366869
-0.5840049493959714
-0.4791351173439447
-0.3047600694968882
0.14146076065734614
0.2634531564219395
-0.17683145207951692
-0.9396224950505472
-0.8407930393991714
-0.7952871129971972
-0.8009019796727159
-0.8520147262929123
-0.624800063669774
0.15926716060269025
0.26738203649718467
0.365321602019969
0.7069246035777818
0.574914530348074
0.43366609206490375
0.6215823203947962
0.8897577030237586
0.8974397073276832
1.0179174869817162
1.17162113599928
0.7436557683631412
0.44597623103287104
0.27798573930662696
0.5581424115707299
-0.2600429345376823
-0.8243528049532168
-0.7797840677044435
-0.6219877615123841
-0.8399997721647476
-0.7494299473691105
-0.7168165272672684
-1.5498841768752365
-1.4002523645582712
-1.1736354632934312
-1.1610463220719094
-1.0152965170009125
-0.9406232930455453
-0.8250922728964072
-0.7061137856539149
-0.21580685521599663
0.0442491434797412
0.055087089146803256
-0.09906523538575225
0.09423509034331393
0.2985562047475218
0.18869494580885554
-0.11587614789658973
-0.005984548802832779
-0.2364309025229756
-0.38138284663562094
-0.4292154536958761
-0.33775758336298145
-0.6981799052353829
-0.7715620398349168
-0.5205526345071345
-0.5553620716777803
-0.8080050749838977
-0.8714459281393758
-0.7937107780636732
-1.6729053685664392
-1.2830432141600072
-0.7318288440193997
-0.7403940671307818
-0.7430591156409809
-0.905049720591468
-0.8783903573935467
-0.8070193826549638
-0.10494730153497174
0.09926701134526066
0.2054725886560704
0.11088973612714317
0.23240604536984558
0.39709353271819836
0.22513949996359456
-0.20683881908047377
-0.01631988045549059
-0.1016129404530073
-0.06360194821439444
-0.03536931783982151
0.025141735516536194
-0.17859149029076304
0.12600713730800642
0.4088916005820458
0.2375734298598995
-0.05304872367232186
-0.22761078264355383
-0.18808471122322087
-1.0036619428634117
-0.777116779016551
-0.3424861720061978
-0.2734490057521608
-0.33492650437427035
-0.8094283990213013
-0.5137577908371337
-0.16224953549958054
0.3894909919856347
0.30751015707279067
0.45197515069203664
0.2120519068241776
0.4059813758106265
0.5893858701905763
0.5638714025088184
0.5390782430475524
0.5970329996024312
0.2414451506248709
0.12898208220460736
0.1800252327582503
0.1288990250711148
-0.06395270228618356
0.2529475712936678
0.5758895463763809
0.39832879755269185
0.12139039794305331
-0.10723608840322137
-0.025679821588264932
-0.6281850219052949
-0.39064552612062425
-0.2613548180052624
-0.2389338670759807
-0.2402713668574697
-1.107681566666226
-0.9463601235839619
-0.48795643597881144
-0.09182051331328217
-0.043068516154938834
-0.10269545988276765
0.058414578661669936
0.4552974482070515
0.520339386813514
0.37987826046046136
0.6631847441055426
0.7896634823615992
0.5893984396536179
0.5717844496637876
0.4519684136394155
0.1548121509956
-0.33849552461100546
0.020723897754250542
0.22698377023507568
0.032070926463656904
-0.052533013161521244
-0.026246894055136985
0.06823978555550594
-0.3539122091727045
-0.12212976296310582
0.09839345185777286
-0.002254201561554711
-0.07508931977328427
-1.1410934664401458
-1.0490482457869583
-0.4541901445331674
-0.30652032414919805
-0.21998393020414084
-0.31987390398163185
-0.2663645913801005
0.3166648529383882
0.05404308261468473
-0.18832277403191125
0.5628757391249557
0.5582002668085523
0.32920830082395186
0.6395464492104938
0.7345784780159009
0.5472044407448148
-0.15935458542098566
-0.19635746932714063
0.08501927975547663
0.13521295531345637
-0.010664676229800711
0.26101187117444385
0.6244758867946231
-0.7830255491798344
-0.45607523909499487
-0.09623382120073885
-0.0700484199409932
-0.3087329696675913
-0.9668635195293862
-0.47055460791497467
0.07812712032237966
-0.2417380005781654
-0.3942201221999683
-0.6712062933962326
-0.6529494715368517
-0.22423238722914246
-0.29279303934582096
-0.29660846255803
0.2971465142634534
-0.2616590824102145
-0.4526908392071045
0.10825476983583272
0.4402586787099143
0.6213615865139154
0.25176251656642357
-0.02041890217862862
0.13524579220621616
0.21874738096105042
-0.11952110956023658
0.1441532845663329
0.6716055627134327
-0.6881702567299062
-0.31095621124822526
-0.09326923561591434
-0.2773203012669274
-0.20593639978223435
-0.483333023957085
-0.16852772064572394
-0.04949494157007782
-0.1078978075756847
-0.16001519281973517
-0.5110358788749092
-0.49065895829811185
-0.15879324255278102
-0.31268203807306705
-0.11950743112603242
0.18177061862197044
-0.37330933647247927
-0.7621187445108712
-0.22163390163617078
0.28685499320481134
0.598600068870808
0.48260397254307075
0.14459442681992635
0.28033197347161953
0.16585049156142054
-0.24416818327190667
-0.08167252229309058
0.22758770894320637
-0.8073531604793507
-0.3521319941919587
0.08349900111319379
0.28806713190002214
-0.16610596235117744
-0.4231849296183857
-0.23804045639923246
-0.48395943575879335
-0.495127773214497
0.38403210896047224
0.11650004724991228
-0.14739501944661845
0.6861466596914465
0.16903326776811073
-0.07273868638986068
0.42911938609360406
-0.07369262264733097
-0.26483376721091206
-0.015801044284510325
0.20088099166600676
0.624193357663048
0.5153863850176508
0.42418414529600146
0.5612860849396036
0.2721410797832713
0.12223184495797922
0.1421242248140707
0.07388481333564369
-0.8080164459143072
-0.06973272437192306
0.3096188227848043
0.31257354863490694
-0.0664095661970071
-0.2892207221915462
-0.2792982708349858
-0.3505306602114032
-0.6210049154636345
0.02590573998852925
0.07393244669608119
-0.5343977317678102
0.08548894286483354
-0.1593270104432533
-0.46883055384788286
-0.011499258761570251
-0.10051750917902401
-0.29635747446616106
0.10678690334540641
0.5504913060032386
0.6623705430369667
0.5341458295961362
0.4333787173683387
-0.13734140603366404
-0.13430094482168214
-0.2359435168462983
0.047589656335059696
0.10386740330526609
-0.739215645168034
-0.3388887241284065
0.26546833970571393
0.4548923140080425
0.17233287275431847
-0.03893359081567526
-0.019353164711298356
-0.29847272990774715
-0.6513871132354089
-0.0797888489182998
-0.06085883252730948
-0.8455557233204795
-0.5240551089400236
-0.4494678577945949
-0.7150194590666906
-0.28917221109874314
-0.40782596817348704
-0.3372720412041774
-0.1626910658878761
-0.12825179980344656
0.1227265354210691
0.3752119892061864
0.3791940173502273
-0.18432322563688033
0.18788080638181565
0.09545964089212029
0.3434596203930784
0.24755936879969528
-0.7819354096323038
-0.7185141271271829
0.015309468431772553
0.2365835909911746
-0.12128925377427503
-0.44993917342342815
-0.12102234416102894
-0.3554941731242421
-0.5207738820504731
0.05611621159952811
0.08432796699000175
-0.42326393968213044
-0.3526936083465209
-0.39809267613943417
-0.34888565090321066
0.339524890847783
-0.4048919657900615
-0.4023992546685039
-0.39127776635753386
-0.5400743156188454
-0.03659205746677916
0.4655312565337591
0.32380595316061794
-0.045181490499933995
-0.2501974309086223
-0.10978655711010274
-0.008908457848308066
-0.4648037603898292
-1.0769491233490778
-1.048633506122746
-0.3199442332612921
-0.15907272056865313
-0.3980407330892742
-0.6359091910506702
-0.05099758810876058
-0.1858803266702207
-0.3992124141160251
0.1902019430070713
0.31648961405930826
-0.18399138584137376
-0.3355052224209481
-0.27297356477126933
0.07690274772511854
0.9304480574480427
0.17184330049705382
-0.13663965343255133
-0.067211975968586
-0.13534971959152337
0.17718811112385105
0.38242693780773107
0.10344831511284656
-0.05878851110466703
-0.42726528648810136
-0.3601587681509585
-0.4065316866615984
-1.1620197723715473
-1.0330663677249434
-0.8171170001897435
-0.3567122907860566
-0.148419494219195
-0.382297862331679
-0.5580830569869459
0.1037790803802725
0.2898708527300231
-0.07450561465686853
0.10924605470780936
0.26709462606458517
0.15360287920393612
0.12675656236708946
-0.049070203786448593
0.20818010688717434
0.7507689787609029
0.22725461868955726
-0.35863721152606926
-0.3719449035425747
-0.3504677432329425
-0.2136975931853761
-0.2185418985101541
-0.3264872082501875
-0.05219574638895733
-0.2282973092794863
-0.3577027675085309
-0.5969604619250812
-1.2674958148781823
-0.7010106600227543
-0.14835109160871462
0.07164306429004953
0.045466906974292745
-0.06432716736734063
-0.14025959690371914
0.3697846311340609
0.7680070579715509
-0.13843444376443673
-0.019931545523241428
0.0687989076604076
0.045586997127673355
-0.012003733795374527
-0.4041310847819528
-0.2990690829800224
0.3724204360457471
-0.204036270153949
-0.47948191805589
-0.5062513673190087
-0.3878938099860759
-0.19017908361932478
-0.34089144561554136
-0.6851602892594415
-0.2982396556566573
-0.22033356836318754
-0.11406196869693956
-0.3822750868136065
-0.9960387641190969
-0.17423745967573973
0.4045567035073394
0.314119235756265
0.11982605798992547
0.4326403326315834
0.17919333904150725
0.3718251082267119
0.5639180628532374
-0.1705504779674389
0.031009867422087136
0.03461788355768926
-0.31697218166241925
-0.23963468803721666
-0.671684703247334
-0.5716838313347257
0.1510837330406808
-0.12629223108451615
-0.23067273576344435
-0.10946949677539371
-0.18144130314817944
0.11952184300441213
-0.21818672840361722
-1.0529818885420528
-0.8096208845823245
-0.21421700708908417
0.06206344851160787
-0.23327813549557963
-1.0153652525578467
0.07106324606667337
0.08790745821398542
0.38631613507080376
0.8901477481240809
1.0365198558797002
0.2667203840297981
0.2649193312336923
0.5443368067058738
0.013490027244037061
-0.07329024672315403
0.15344823850556927
-0.14237385604541017
0.15540292816864665
-0.07030019504708945
-0.3787824668172954
0.008558588727411106
0.03567515221602141
-0.4674552870914556
-0.3986202024648632
-0.5670897880327808
-0.6663539627499778
-0.39664693237672033
-0.8210247138607081
-0.7897163782197119
-0.32018182646711746
-0.18503545686157866
-0.2735729683526772
-1.1236253558982172
-0.35270992276500834
0.09764790129993152
0.4339446522457018
0.9203151178198393
0.761665767064301
0.2073743458632429
0.23059474578672565
0.3938482792120005
-0.006115448607318395
-0.0017356228853291763
0.05947789887455769
-0.5164524763481092
-0.3985960330512408
-0.4820144431814128
-0.30495083549076174
0.4424545229141185
0.20887394319330949
-0.1611951574721318
-0.1365373997746806
-0.3363043195567974
-0.13051690061907656
-0.12968149210773566
-0.5031234418654094
-0.32000304393623696
0.05380375389649916
-0.13547757357870924
-0.5054508669107414
-1.0380856955789954
-0.5157550218245462
0.028124206961601825
0.3160884945258545
0.5126236187542239
0.1350696636384773
-0.0699639251784288
0.11232958675337425
0.3118373473092444
-0.02234022285047301
0.12201457495093179
0.09060981714952317
-0.22130975084737176
-0.4085296998099697
-0.4817701905881515
-0.08397063501054702
0.7989535726103656
0.9395526267473381
0.3716705716628319
0.33460162722888753
-0.07779460306535746
0.1229125169699037
0.0447014712025206
-0.16953464203650892
0.23423832336230388
0.3521815353819077
-0.24596604064027414
-0.7612375771584393
-0.9675301779447564
-0.021166897723553724
0.26542084037284397
0.04988651638798161
0.008282205518684346
-0.21818926007866107
-0.43341028925414327
-0.2438539065811152
-0.057922434637442115
-0.23464596072300634
0.027129020807661452
0.43235966366214434
0.09873477030495285
-0.23056692199962733
-0.3734948200312782
-0.12410051001640833
0.49186011483551456
0.42292174943904937
0.2617222358549022
0.3713054172464671
-0.1934558105673324
-0.02325154201947272
0.045223493842246394
-0.3331384144851933
0.14067538170610433
0.5170441796043492
-0.271752133858737
-0.5780269793390429
-0.7612866903891949
0.3686609453685808
0.06920546693111636
-0.07364455417893412
0.2955914356164388
0.17729452267025186
-0.21569567814369325
-0.2747295881340016
-0.13620340010631057
-0.510452203068266
-0.11190180036950272
0.3388494533147505
0.0439178161415913
-0.5749510863150549
-0.8803899798474409
-0.75860714374687
-0.21730883802930137
-0.27881761035258806
-0.058136641187618354
0.22808440264190477
-0.01999216739962373
0.27228012678528396
0.38158954027029274
-0.2137736037640999
-0.03834953211981764
0.5002534507931478
-0.08679558481392849
-0.24027645095537561
-0.5605063576396021
0.19343999057371275
-0.11048784400493106
-0.11292734079056242
0.155706483496956
0.20950352575453274
-0.19949263789521376
-0.2586059175252903
-0.06986938368762588
-0.15370464409543003
0.08661529035192865
0.5163703818351321
0.5141164783887621
0.0444412950718272
-0.2817798154072839
-0.6809059242218902
-0.21356155590660114
-0.14884425239095775
-0.3684437669326253
-0.03683844908254332
0.02968142262186945
0.6366450530359484
0.787892907932745
-0.13582073785630627
-0.12353712580397452
0.05349377171507186
-0.12719372269912177
-0.1748409331401536
-0.3708349749000563
0.471859415098606
0.22395454197061854
-0.06448923171471653
-0.12144809938520172
-0.04068270870134604
-0.4725237140879135
-0.5265766537589983
-0.16011256774480437
-0.4763225646040598
-0.30271897565529216
0.28837724787599933
0.6447562597937807
0.8941007733953305
0.30545642726676353
-0.4789960666576792
-0.3544788105710327
-0.33311193080101786
-0.3835473918581452
0.019916657669105088
0.05364399878016816
0.5856181314393882
0.7382316522186165
0.2720109699131431
0.25462224177052967
-0.21625295748927126
-0.3750960674651125
-0.18482177402310462
-0.052266066665840355
0.8822618969394082
0.6015908807021788
0.29070756307058265
-0.23337781898650578
0.027672825287896767
0.08236010857787823
0.08995245968362718
0.10698144007675353
0.08001573528089743
-0.3184500130306355
0.017668193071831043
0.10370914734320025
0.7286931509343652
0.26855253434789267
-0.2683799540918295
-0.030532191935361563
-0.4467605921226869
0.12328077893097943
0.47248254563079295
0.22272150786019443
0.24658272072004453
0.7606926216633937
0.7159759758038565
0.7143953180323859
-0.5393695754487504
-0.8567511253145845
-0.6124525987635931
-0.07358797135481081
1.2448934881648732
0.7996776295930088
0.7337600129607
0.3824842169773405
0.33227600326129364
0.5236564223576805
0.23190761666037277
0.4730050231807581
0.23760704704163782
0.6094664283660735
0.6321873490816535
0.2813703998843427
0.7783597848856076
0.5583375132380619
-0.23999422957443678
0.13347735467372646
-0.08261364497714412
0.2111927749337274
0.7306020455166916
0.33415623144453177
0.28677307847240946
0.23698109192681507
-0.19942055065628878
-0.022721170536271304
-1.3271698236445832
-1.2104901875549348
-0.7140164243338799
-0.2937417655681728
0.9237941012132748
0.42816272211699186
0.5732048042724746
0.5418027873746222
0.6002928833107629
0.7106735980795216
0.5337785685529337
0.7414159019111716
0.45820122560455445
0.5857680091265933
0.4523952500841998
0.2854134742007378
0.7816680885381754
0.7392803552272084
0.10103106775395362
0.5736653030774652
0.19268838682205075
0.07445661249860325
0.2762080470829059
-0.20166939193260175
-0.33681846558030065
-0.6011894182056642
-0.9284908438669519
-0.6649115133018989
-0.926778707658371
-0.7069000522859681
-0.08707911729657763
0.589829050736567
0.0148323016439248
-0.7798847712224697
-0.6732281889515574
-0.5111394340428851
-0.43543042134510057
-0.1616973454837933
0.0748631608624446
0.5797082669736608
0.6675464362382756
0.5360587251221626
0.300625057110358
-0.03191041949206358
0.40293865992523903
0.48922113171588183
0.34664734593852936
0.9711241803071919
0.3049966775399575
0.10646342788441918
0.14825703169814738
-0.6349119317268558
-0.7451225037033326
-0.977176565760266
-1.3040248022428464
-1.3187640410528654
-0.749033094148726
-0.5334181720187903
0.0873461630804224
0.34737024070623834
0.1942764483238968
-0.8767062301682925
-0.696490218526084
-0.47838387295467355
-0.44320846979629264
0.01592133248581806
0.7322415883870571
1.6386102621627976
1.8134586254164624
1.4957723022802438
1.1363005450945067
0.7886517853546655
0.9889855656868912
0.9806306273016049
0.8788636147110885
1.229887577605889
0.8897586678755594
0.8397708917813134
1.0716442192091133
0.5619665698869268
0.49569727865230545
0.3256796627774569
-0.03772893397700654
-0.013379451182657345
-0.11082621591539858
-0.05713958970412204
0.49137889394901013
0.5509980201061052
 5.097572923206757
2.6120081260038748
2.449458812604984
1.6130948899193116
0.7170483222177723
0.516866452095139
-0.9979425944491045
-2.8874273686793437
-2.933008403876685
-3.313017676363114
-2.84888786033575
-2.136188900748779
-1.5768675167942372
-0.12882546068005463
0.20231249858852593
-0.36316850868475226
-0.3770897980837484
-1.05380560794278
-1.3593046800275328
-2.6045495981436084
-2.5065405121198387
-1.6035634994759977
-1.7354936365085658
-1.4885741302110975
-1.5749492593199559
-1.0792759674913674
-1.8126989378941725
-2.3597630779934384
-2.6180745311044493
1.5027878492913116
1.6970796064236984
1.2932620145129359
0.0173857435432242
-0.054731974324388415
-0.6651884478297747
-1.992059405701243
-1.7693972798901758
-1.2028853405524156
-1.5192092687704601
-0.9670899085144736
-0.06510667616794441
0.4904504461230247
0.3812123315933549
-0.014350604466816677
-0.5580506813342925
-1.1469505640562119
-1.3590156281568357
-1.9611529017169314
-1.2971029876787972
-0.9298572802913299
-1.3143337090860254
-1.1385229374727155
-1.3782289731214996
-0.5188369150260566
-0.5915235762671079
-1.5854085272718734
-2.1759163948720146
0.7663331363167487
1.4587574090668338
1.589269979565606
-0.22443850762153725
-0.7138646318202769
-0.3514055500736397
-1.092143516950891
-1.034564766328384
-0.12007344210824612
-0.5041349028177948
-0.06374994110090007
0.3780059675022377
0.39803093301463416
0.31066141874569075
-0.11991207818299143
-0.2713314778374438
-0.6123232636012055
-1.0185943223917764
-1.2052027700761816
-1.0990136827187984
-0.8649879328642801
-1.327620146022408
-1.3248942564105706
-0.8331949829481397
-0.23420192204120338
0.11858125741378707
-1.0145391055062147
-2.3409425269706503
1.0706230179159129
1.1658685169805139
1.2701507417309532
0.6984374811000775
-0.4993664524342364
0.24601216515311755
0.09000931521124927
0.2970041219939919
-0.0740751366346998
0.2383634899801422
0.40363155407869566
0.012033731638046814
0.14411155341123613
0.6207193857221183
0.4292172237671289
0.008406263409636528
0.8037492465321441
0.48146816517472685
0.10241153487107636
-0.4884908048048729
0.37647534967692964
-0.4906764778528142
-0.9253779635350687
-0.4416768942354235
-0.3382384796191969
0.21890219203102854
-0.28315856783577836
-2.070818912838917
0.5900359335639889
0.3846929453272905
0.8369112930580835
0.74761287676814
-0.2562775096729873
-0.25014601061721375
-0.15943715700128702
0.28291678988912133
-0.47920509565114816
0.2035411720453806
-0.0353911018382039
-0.32046391688362286
-0.7069116097475101
0.22138524039919197
0.28622446704118243
0.002165790387139563
-0.2588518347223836
-0.27684065981634354
0.361143728509014
0.07661461928066791
0.5657141572471254
-0.01181159989682705
-0.4329036956442005
-0.16512707294123866
-0.8901612670650987
-0.5721606889228776
-0.4483692332829635
-1.7294548022427045
0.6093325874631629
0.39070398543980545
0.7612774713673963
0.6791216144719671
0.2443480952084599
0.2866992824663053
0.3130864887321729
0.17408727924882617
-0.23138104387042896
0.580447606683536
0.7555010069661001
0.09437819854995204
0.17744369010239505
0.48820453582856166
0.4429700396274484
0.07438543029752656
-0.07712124577596276
0.5957789728002784
0.43693465191579406
0.2500152170323478
0.9820957705918162
0.8030644259442997
0.33411033249329547
0.12079392560214318
-0.28215092641976114
-0.5575347581405697
-0.24175613021904185
-1.1758859524525889
0.25897147510718194
0.09195542329641924
0.36156979935956957
0.6437291235696468
0.6132152121547285
0.7102280535297983
0.30266281352624064
0.427893660607719
0.060529375057058986
0.3855363043226671
0.44441699570065035
-0.11894152985670141
-0.14481885302614939
0.38651534712201646
0.4019385404850252
-0.4977611530862532
0.00696582519018997
0.5078746732424317
-0.036473038373841846
-0.13357276900011206
0.9048196801566712
1.1179528886326342
0.7185719006365435
0.6699956124962874
-0.1522122251707631
-0.6257729158723633
-0.36185693165559996
-1.5323606404534786
-0.20360445971485458
-0.33906072252860464
-0.12340723762672923
0.6215300703837905
0.6554465704426256
0.4591192505729777
0.008805130198734192
0.4792432599232579
0.6936507005833927
0.35193596206014727
0.4716001473952515
-0.08094696585080786
0.2060979828119866
0.34487716895532267
0.335102595907262
-0.46890039271879924
-0.0025880741317195846
-0.1686890267349214
-1.1949014171761771
-0.6913478848848194
0.6810832916183105
0.9210059598226825
0.7135466006763699
0.5903783522776441
-0.37385048061109194
-0.6400643898623811
-0.27077005286834904
-0.8831250531608963
-0.001740444689968124
-0.7707452945197192
0.09399719962215541
0.9078853058379353
0.5962139936500124
-0.20879690444100218
0.2711252567936695
0.37110803142209536
0.5481213479659693
0.763452799097547
0.5480872994175304
-0.14825424058267617
0.07568237637513851
0.2397624416666174
0.35110044747408986
-0.04821888186617414
0.13128654535758402
0.4275130208143786
-0.07241558392771667
0.3448491462119388
0.5789408276289899
1.342002111686406
1.218242689211726
1.114738465845424
0.5596515502436638
-0.22554133894278267
-0.6178351967771293
-0.5868774755861595
-0.6283257860656745
-0.5821159217355757
0.1648853079952234
1.1639111674766955
0.06903506553700323
0.20358630636399755
0.7581031512840415
1.392808090537178
1.1673112015443192
1.4144668335831827
1.6891600312061892
0.7215097134168746
0.6167615905910097
0.871379590935081
0.31707124151774724
-1.157293280640044
0.042766997564635326
-0.020470125749859288
0.09146118274136904
1.037288900042111
1.0048948595121903
1.3853408085144374
1.265043503333334
1.4805230431281697
0.5722446376193735
-0.28028499770917553
-0.5656304738205978
-0.2607009514533401
-0.4373906447410626
-0.13544776294181288
0.3286059763961983
0.7536524441489731
-0.12555234629804043
0.1747623396702731
0.47320355943053605
1.0295331547274271
1.2461865904619371
1.2821984594765183
1.8721698689536372
0.9368202567207937
0.6073308742930135
0.5092490408982774
0.03176719486914691
-1.4313854773411587
0.026228068073221558
-0.24931112011418885
-0.05959157085017939
0.24086056892161015
0.31510305230797375
0.48957275653148874
1.1188452039598749
1.3105693019719429
0.5446028262153692
-0.07608971747506282
0.06448243951638691
0.12516997849553205
-0.05578044857656684
0.5819283861600477
0.31895216823053885
-0.19957011723707757
-0.629580433213266
0.14321516996698963
0.014190724817068465
0.8210182979714352
0.3631548368180113
0.5699742414512544
1.2501152119024082
0.9958646507787325
0.45642799669277856
-0.21548738994040972
-0.45777717162766846
-1.1625352107808828
-0.15891064795653034
-0.07847499549850931
-0.06840625509807394
-1.2213474914024705
-0.5815967567507407
-0.034379832725226
0.23534196417784145
-0.3048061441425865
-0.6567247431967722
-0.793435091706496
0.017637346648559444
-0.3871177815380907
-0.06262278237857999
0.5679855298951428
0.08851707555039745
-0.23365712499996658
-0.12577702270129393
0.49627976953605446
-0.11925709206607091
0.8293914663758625
0.3601778044836268
0.8870557571301732
1.5136027377070633
1.3725381145330513
0.6203452274486605
0.4952892464279917
0.9681397926675471
0.8984327459300369
0.9581571907910693
1.627697554218031
1.2821197981285837
-0.6030884273121652
-0.2984706592211409
1.0987917770834958
0.920275199837769
-0.1515729191866771
-1.1537779093202705
-0.7316983506631833
-0.0033612421951256547
-0.8271635290270578
-0.23408727101404325
-0.13716919273786302
0.02826507433880048
-0.0037690323027168788
0.0251214567865457
0.5630412727452382
-0.10507943624159741
0.6607416331441933
0.5430482179431749
0.5811753303702064
1.344497884924217
1.017069114633452
0.37988076917139546
0.3322918001768189
1.162707955792594
0.9545574476737978
1.5773631630177969
0.9996464405570065
0.3251913184146327
-1.1642996723789047
-1.0667137543535916
0.6989387915074718
0.9801319095364992
0.3086279807101507
-1.0956206117947724
-0.6315477023467546
-0.14119266711425524
-0.8392056650839571
-0.1999891136274504
-0.46093056558814993
-0.40659937423549075
-0.14569227909400287
0.05138602765673508
0.38967345837070905
0.16287213753742946
0.5730970068572178
0.475922949526677
-0.07331735148754825
0.521439588133626
0.5105104816343904
0.230353825732202
0.11347165761260777
0.7803884233107149
0.5265920719393226
0.9884299628636954
0.9729367158518106
-0.33415495218415076
-1.119152881502185
-0.5038220464252102
0.8452080140944438
0.4840258536465258
-0.11879851139067385
-1.4572117066724524
-0.9052882427083923
-0.4391337337210924
-0.7424645855004044
-0.1914446169161269
-0.821734373947833
-1.179814682374827
-0.9077106767298677
-0.4695217937682754
0.0019512770389591794
-0.03969820686479089
-0.024470359410998073
-0.10963806170891419
-1.1157702086615833
-0.8652017475448895
0.17534399348226928
0.36627040799319266
0.002192711327097457
0.3266224953473556
0.00806435724716618
0.14470672628226136
1.3745866309026282
-0.07016336202579157
-0.9938709498948612
-0.003983139872557784
0.7583821772065849
0.012558690432911572
-0.45425135771759734
-0.5692147938477629
-0.21086692664103326
0.20763094546057334
-0.42045746543109336
0.03887728055352361
-0.6790843234460993
-1.8898905787202873
-1.2640366819677256
-0.4957905344720246
0.02801164894341688
-0.4410428519891998
-0.10834973810502199
0.233577444063307
-0.22801696488251846
0.2163521188818918
0.12256685811444301
0.16848940950798688
0.041299806172554354
-0.45640663499282597
-0.5127067365241125
-0.3705533775224501
0.6094473323557886
-0.24189998068741628
-0.286047578227797
0.28796436376155626
-0.49003874139828446
-0.35044436642072463
0.2384043387299485
-0.008125008624760961
-0.11143100474928631
-0.5445531352516813
-1.264879567503344
0.45326941037428037
-0.15652639753130757
-1.371365185210356
-0.85858197662089
-0.40982277085455837
0.4189774759963629
0.42683896309010877
0.9710925435613516
0.1139868168758896
-0.45024156075988225
0.04118078522205417
-0.21933360702953095
-0.08600626335420213
-0.7401411596627614
-0.5833594577541835
-0.34016307329953577
-0.017193178219622282
0.6035883609143373
-0.11608699030602294
0.36322936304562964
1.4874886105193783
-0.06505700464265067
-0.36101337405009776
0.4178494011943887
0.5532955847167055
0.5738755720844751
-0.2091173973111506
-0.7654406874022233
0.11197061939244966
0.11688436676880802
-0.2687110261921261
-0.3098247115686047
-0.27370859306268114
0.6417823767463464
0.5749886560234208
1.3221399856867213
0.7499069665002529
0.09486798391621623
0.29253763023563223
-0.08879474201688826
-0.254297118752697
-0.9618991053420063
-0.5349913590446084
-0.05051259231054702
-0.01833548346051231
0.6305661065561824
0.3572087133480916
0.8104350766303654
1.599934874620317
0.49627279114990747
-0.19072166851283134
0.14232059819271922
0.08148455491946346
0.3507261051324014
-0.1811106572409347
-0.7100760079089335
0.0055837901663169974
0.19087754311829253
0.6631666238952728
0.22487836914734832
-0.4575567613130576
0.8429361552960818
0.633064383324845
0.8981138511303567
1.2969751450827187
0.4642331132157455
0.7431063651863568
0.806671849042353
0.23168127195158222
-0.7091023003324635
-0.7141644512068869
-0.2611749385641968
-0.5753432405193849
-0.09113283684881879
0.631725054584964
0.5796583617936042
0.8245636455324447
0.3534773762525927
-0.09188706579762139
0.3828314534756518
-0.12524137238415928
-0.038929708587813486
0.08791211895908747
-0.55466417393775
0.11341352932624472
0.20024825397713317
0.8549641708979512
0.3142929826199905
-0.3331224227941646
1.2505442236596267
0.6693676877399445
0.5521231314544282
0.643910364472797
0.14827166107019354
0.3428560850723762
0.4930037006582858
0.09614222883544328
-0.6908622933475763
-0.7216150457160722
-0.16061686666028296
-0.7668014758049041
-0.9067610389504162
-0.12360718658852746
-0.4020622128863917
-0.25646456149519076
-0.43940601827844383
-0.29100046805767427
0.5096335106461325
0.5590907958046859
0.5667134142584267
0.4854370647968784
-0.0995913714818848
0.7950107763972217
0.25714251467553206
0.4553774668900131
0.2046932798826051
-0.25620773186083046
1.0795798612812284
0.24421491794070924
-0.30958245122330336
-0.39785675211386073
-0.46879672885052387
-0.047362324536710354
-0.12681872737556682
-0.1412938192086843
-0.17370871840278
-0.0070704262861868905
0.7423193816025893
-0.35770892367539137
-0.6414462411941589
-0.5510864666936918
-1.0848457125218998
-0.5200525668183408
-0.4153842347682813
0.15385332374127195
0.7093795712498732
0.5895374034538485
0.9892888039733368
0.9739306146238819
-0.18804006510641053
0.6536079188714943
-0.40037842893567244
-0.5559960145784227
0.07798555418619393
0.12213459584025502
0.9220807472875636
0.021840487686921872
-0.2751621659165268
0.017512047784725378
-0.1915456090453975
0.45159607381855554
0.2213972526398555
0.16870935547982907
0.29550246213383613
0.5279834625015153
0.9808156170952524
-0.24434624327271473
-0.22808568691039452
-0.053894738542241215
-0.3082069433156916
-0.2786177629350642
-0.24741522253059245
0.44988938611110973
0.5113556123614404
0.431823428145635
0.42883173707564176
0.46726781601382805
-0.9645924737490639
0.5263022484455053
-0.5274714733459299
-0.712998593748948
0.17303732149900586
0.7797177915863268
1.5005564972463385
0.2897004325682747
-0.21164615102686146
-0.1728572064055926
-0.09552700441625683
0.8766882127967137
1.196461735350137
0.9132271182251332
0.48040301336185376
0.6523790593180051
1.0851065533189246
-0.2875514761924668
0.08141347584801112
0.28723199213653566
-0.007352019292780668
-0.3359309563895359
-0.4906902063975327
-0.2202817515158028
0.3095176983109271
-0.15727017519516498
-0.564744506986903
-0.903284271656358
-1.8917120174786959
0.1952287195053085
0.4106974305072414
-0.259420344592585
0.1164515239215153
0.302110139072501
1.0942754717428294
0.033213545658198916
0.38011234304193375
0.40479334347332446
0.29637801961386395
0.7604870371459529
0.5487645074408338
0.44898336655573545
0.29541950230616143
0.49489952865908426
1.0525833922275731
-0.0787902104324265
-0.5073391901952127
-0.4531093361786482
0.09742826003570948
0.4808488987031019
-0.06005591881606831
0.5998825054708725
0.94099804087988
-0.20814048147265876
-0.816946575472473
-1.4618734863220089
-2.1633006991711956
-0.24031179736595093
0.03654127649294897
0.008988065724699377
0.5668964440370284
0.4325998677816549
0.3895332154281509
-0.8255576262544767
-0.6518924810191874
-0.3183390734605915
0.13337259293766396
0.8936753754251865
1.0669393429455885
1.2598672822466448
0.848788020528102
0.6784423392518274
1.0501784411685937
0.9842463274460148
0.841465970281619
0.6063557737811422
0.8430701282074639
1.1140361191819095
0.813513244601178
1.5557142232788614
1.7355169197639024
0.7607903977251567
0.020953109997026983
-1.3161726645409542
-2.229822726195161
0.6437920426949328
0.5229676500636184
0.08960371436668904
0.32644345926086515
-0.19906286660665665
-0.3935818880853749
-1.5067698607906044
-1.2182253451587135
-0.19589214689552065
0.09538716392325769
0.4873103930912775
0.3429659068424791
0.37164647946079876
-0.06943608071748679
-0.27568975845318394
-0.27546415479931674
-0.010511939169294928
0.20400691783812439
0.22997662303458416
0.015341187985105118
-0.04163929917973813
-0.12527995312221896
0.2310996898085292
-0.12631970826804736
-0.13017197380561435
-0.6401881056832035
-1.5205870723935295
-2.625566322841465
0.9739779435039485
0.8972437209432258
-0.06329768984056296
-0.19361611555635216
-1.129733864367228
-1.0604538836138673
-2.241287507264922
-1.7112645526742218
-1.236188993562784
-1.363402760121755
-1.4739344281773357
-1.9017770844784336
-2.103885777500055
-2.375161691731168
-2.226519816118048
-2.5309435696456566
-1.8494463680795814
-1.630290185678919
-1.4776468503465345
-2.019935754181353
-1.966480835876227
-1.7856758709271605
-1.5088850138337866
-1.6938118655283412
-1.3933631570380771
-1.716777267654976
-2.1448829058407894
-3.2335366385659507
 -3.80442888752329
0.8671024760084248
0.6268227757484273
1.1114265550978957
0.09852575834398133
-0.15557694594279703
-0.2649898471823387
-0.4918339901400236
-0.16774638851390375
-0.5452289853113993
-0.6434091059775356
-0.8432949083741768
-0.9455610820460082
-0.5658941192160346
-0.37136883684517696
0.34429822459879894
-0.13850070504732345
-0.6103057014755658
-1.0869897816609089
-0.8612964324363555
-0.34789395511489624
0.06697024626458553
-0.3930947777026341
-1.4622857941935663
-2.568885828140275
-2.0461187666528105
-1.3745709130604395
-0.814564358012609
-0.6702625898654518
0.30926605493737847
0.2549673586488424
0.41747866111100407
-0.04623317138473089
-0.22777004612224894
-0.2369812620586331
-0.3585613496494243
-0.6417561502809612
-0.575468003304506
-0.7692213736051537
-0.4336087164663933
-0.07496142361093297
0.3624817685507828
0.1673849905847867
0.2555059682906196
-0.533321693592806
-0.6695997431970784
-0.9009334638963942
-0.4406221399969903
-0.1435778395848503
0.01755259540806719
-0.4451711730272077
-1.042692189291036
-1.9337872421307793
-1.35357765016118
-0.9921258694534053
-0.38337046136468983
-0.4688690989302841
-0.7594172493314434
-0.7203613805131882
-0.245500128978527
-0.7741726981535557
-0.6492463572079135
-0.6785457269449958
-0.5049338577381289
-0.6945164890594678
-0.9239631184342566
-0.7612921386692568
-0.05230610506477712
0.21821847706930958
-0.07256272060531906
-0.659577668680161
-1.0431896702442567
-1.5441530711938873
-1.5945301977338777
-1.4241117413858204
-0.8299381487749432
-0.3771902468276764
-0.2657499108671612
-0.22251356022068425
-0.34514284270353923
-1.0378144662203317
-0.022873014146334268
0.06572167572202342
-0.11778869686444073
-1.0011968920337144
-0.765236653409613
-0.6151313280331644
0.49616593227806993
-0.07312065360447119
-0.0023015664101717283
-0.013330028824983724
0.7525328064347748
0.9968236917993385
-0.20625047151843906
0.016439403346484447
0.19826046154512714
0.332902515639546
0.341592018326611
0.41370922501612867
0.6801847082854755
0.03796401860734964
-0.5810452532224629
-0.1743539491031484
0.03962680039519817
0.05555424758002837
-0.13591886329326103
0.18911491547700773
0.41916226327528006
-0.1310955698302595
-0.18227108411142678
-0.0790765720675516
-0.5087221508149784
-1.1498610681342878
-0.8660386423345231
-1.076799979661366
-0.07393134222267304
-0.1794029123281081
-0.5722099860300586
-0.27744382234470855
0.9399071456489778
1.0946444015839456
-0.0969304476540007
-0.03457307621394085
0.08861347886640739
0.18928914172886036
0.7970745156723515
0.3475875233788173
0.7081656734203207
0.3897728077421267
-0.39248776725169826
0.32743853072936574
0.256350180772371
-0.24532051010193984
-0.5565986587990748
-0.12669568908714762
0.5477113686417339
0.2839463146806064
-0.25278332917499774
-0.49182682684082735
-1.0040248365169766
-1.374670454337417
-1.3641441815501352
-1.2808851153435443
-0.12721962073932452
-0.10065986459563768
-0.5535769429899168
-0.10233107177389139
1.1266880096671703
0.8075789238490227
0.6229772992526872
0.6684811858694419
0.3524466762449715
0.4342602252411599
0.09876697354015783
-0.36330578890012205
-0.11230153767910994
-0.5948754347566687
-0.6062559581660719
-0.4199865351926779
-0.3406824039776097
-0.19449663225112337
0.19555765004755907
0.14827072988856357
0.5416880446637655
0.423059029819557
0.5979094029345421
0.2699138790435352
-0.8172491225329525
-1.5861457302973345
-1.2500005664723088
-0.9805773200813107
0.3093324911173273
0.41416499472610546
0.21287699148601222
0.42598157704405154
1.1746837710680424
1.4057378386810961
0.8565016666258866
0.6917601817406775
0.09803393050300438
0.15327050642289117
0.25512390661082984
0.2373778101830054
0.3890739701386328
-0.09590010464359003
-0.0381999093073181
-0.1555370786331618
-0.6348952409576915
-0.2963668100684095
0.6456307074123834
0.911479540342056
1.3959381971248253
1.4195767485547948
1.2889304849924266
1.5998390167276466
0.4856279494362576
-0.5784833832497509
-1.1840628848425923
-1.2840811426090435
-0.43479471293538763
-0.18899925415544094
0.14886049086001232
0.2285586831943679
0.7153893305718142
1.570692942017738
0.601080016521848
0.5055030535958616
0.27806129450939693
0.5904263614541168
1.355646200420948
1.0288063130695533
1.072556606719885
0.7658588155526308
0.32247516713139124
-0.007778335963109216
-0.7936182125770656
-0.4287472530139711
0.3771409874284345
0.7901978669948164
1.0616570847524134
0.7774250704116911
0.20422941369594394
1.307989348666263
0.6322320260401795
-0.9243236860897541
-0.57341775762821
-0.7297056875315019
-0.04314559138240566
0.34548272208664166
0.23067311730158777
0.2642353612431265
1.0047595409875245
0.4800058503909587
-0.07516591926397283
-0.1318699707340094
-0.07792427198569708
1.0082190832912152
1.3179295713017702
0.33938797138347
0.3538324499142916
0.5695089155470298
0.6241073787074302
-0.2858745315718501
-0.30100666468656445
0.66203098159757
0.7813568429275423
0.8015872653715779
1.5263959480699252
0.9236820055479174
0.44745546774732636
-0.6583310178264437
-0.9483332125547257
-1.596037673837869
0.8756689917648091
0.33832654615312896
0.6577037168359281
0.5771348300679117
0.25701029715571333
-0.5633902740302151
-0.37181609846153946
-0.5338682689633072
-0.2726059520377567
0.058857961275150396
0.3700762644578125
1.0360917565436996
1.5497316435841517
1.0600574197991055
0.3869959615044755
0.005654076191467813
0.7111940899566652
1.0630098978599547
1.308008403536743
1.2175111073156981
1.2904367311362845
1.3173705201347121
1.2757813419790656
0.7604665880740479
0.437980187599765
-0.3802877238769489
-0.772108997283893
-1.5387377665082829
1.0024522478551703
1.0232593490182404
1.0458789684281253
0.5211386364155106
-0.23842054319187792
-0.3949289101615872
-0.33630840714858445
0.1814631544342828
-0.32864429178785437
0.1351522010947876
0.6973515818548969
0.9599206669341103
1.3502195051564811
1.0903762298498307
0.20756114638735126
-0.6364129617202997
-0.16928615265512703
0.6850474558490741
1.5107167776469663
1.0805994614229482
0.6523260255951908
0.5361362848709689
-0.1509861881545309
-0.12967056690768294
-0.46956702449484955
-0.5888122643502298
-0.39493865990925586
-1.122608206576699
0.617604579407202
1.1263508403055449
0.8002338461306482
0.28242901129572356
0.14066927054314302
0.42995585961713795
0.6637559027139307
0.9866383383924122
0.5846457405741723
0.5222420256878411
0.48021200220068067
0.9005342948553304
0.6975563356942551
0.41095729402695064
-0.29423456229201217
-1.1516126466229686
-0.865312893332264
-0.5487923050630573
0.592281174757644
0.45160737146736074
0.33227008287831344
-0.16686236509849445
-0.6447197532555105
-0.4562001809438997
-0.7193115135307836
-0.6250782708534242
-0.23353097826212615
-0.29328084159744805
0.6533286455872693
0.9308426043800141
0.2916664543981962
0.22145166871967872
0.5696909491633687
1.2124250782912305
1.6500531970955972
1.3312486234410508
0.06515992993065865
0.11106329212989428
0.04393862227353248
1.1240982188189987
1.0296573723912115
1.116800978616781
0.7891686371962617
-0.26914204570210604
-0.11396140580751807
-0.5018979543359522
0.6659119065274267
1.2017818151283417
1.1990283801353419
0.23946956799823488
0.5082495094953717
0.5436926419475029
0.3667928721982831
-0.19447596723354954
-0.016508820835744
-0.06889547748428641
0.5411707340271107
0.0875378303717539
-0.5674811517875904
-0.03150097092112483
0.3989144051667884
1.136820179004136
1.3413305269688582
1.1038246382888972
-0.12654126729974913
-0.10447350450861334
0.23544518551057778
1.105512094434035
1.0242463775491513
1.2163724678935484
0.9690557635179533
0.18404050073380124
-0.7101668742743237
-0.8861364578869099
0.009660908304600231
0.7143676601109398
0.49195436151789557
0.3641244290952922
0.3310834705408318
-0.03082837642355345
0.6840033680284568
0.47664961155608926
0.3031677762863414
-0.30809058615409646
0.4176754676639641
-0.5706316145418087
-0.699543994949948
9.523167366914394E-4
0.018711345463320348
0.2763524057244082
0.1538936616781382
-0.06840959434265594
0.5637444733371629
0.10870426112038907
0.4989758985171184
0.7219348958088945
0.22016821280343823
0.5149414690689906
0.2968157479060538
-0.42441481821860433
-1.413209479042466
-0.9182866213176818
0.04831071167229521
0.4538166664631531
0.3230354999194577
0.4738288472251134
0.5790383335701447
0.5370356946045911
0.16534431910055902
0.5033458684363633
0.23195358092258275
-0.6983662872896483
0.5071272404487096
-0.6117647868539918
-0.3373064899306679
0.11609603530673433
0.11331240968463838
0.26106397733324005
0.2047672937093264
0.021124991843373797
0.5105146435282141
-0.38979096315367484
-0.4895946765030051
-0.009852528646446354
-0.18204913535867706
0.6972680713665486
0.8598403980642942
0.46556911022402303
-0.5859220887514622
-0.7683525969158144
-0.17140888623413
0.2798183099605778
-0.08868708044487794
-0.019677065035168244
0.33093541794409875
0.6025095391505318
0.13608587146732268
-0.4589071582946285
-0.5040010096657431
-1.162329352232061
0.44896529007027736
0.33571357871724744
0.3224900416932846
0.13532406880873102
-0.37798865587397706
0.0936055160591697
0.3500309105683092
-0.2865367247813481
0.09248138272215539
0.004529442464688172
0.5086348134727318
0.06680511083688327
0.01022001080562313
0.47596343089960613
0.8065527691973808
1.2876234252826806
0.23738537694819126
-0.5453052815724609
-0.06639003485804146
0.1974444388011111
-0.5894100348537863
-0.7563277938783092
0.33075638094086196
1.1704868778544928
0.3078688777754578
-0.37341888400798806
0.15398305744975554
-0.6105005487726786
0.3088823786431206
0.25473593848788584
-0.0171953126115015
-0.28332633341765856
-0.3996392497692347
0.13536629308035383
0.7011527697202982
0.37222625753089617
1.1390102835668547
0.3350951061495699
0.5389355825325625
0.4111307322131034
0.22095027978227832
0.06168986128802092
0.2792971204519223
0.9123445605887246
0.664608498419059
0.11765181402345713
0.5510130707765374
0.18383934632923382
0.018200135957608433
0.006189539781008747
0.43739307985920295
0.7083258012267545
0.8225764946622957
0.38331773730130503
0.5053937728943526
-0.06271343411318762
0.08891225278948116
0.06442477054792274
0.06508096848349744
-0.12890364467535514
-0.12820400951139918
0.14027464437889084
1.1503170691294005
1.9757523066554479
1.6392511802465752
0.5519037451678878
0.29136233580005655
0.5209029806528741
0.1822481719016391
-0.10500727367569893
0.06254934723368133
0.7474990325903108
0.32248792636668105
0.2773403716417813
0.7341931213316734
0.018595276341628532
0.43998068695554665
0.7871250509021298
0.8042356277751538
1.0314523859429552
0.29954029001412136
-0.22455292437910523
-0.12471276330156542
-0.5664806247054194
-0.2403289833610386
-0.37507777206018267
0.10991253489010101
-0.26761395178689684
-0.5494262171526484
-0.5943011399334255
0.41669652648110284
1.1434394718007665
1.628923020574117
0.6457214418828967
0.24283714811336396
0.24074534944866394
0.24245311072468162
0.2016187189482354
0.7392087087266577
0.8671273646693968
0.4864129836041868
0.2357609210891037
0.12558175684875247
-0.5109859025742944
0.24666433836662457
0.6965905803891878
0.5158872684481203
0.49824304454705276
-0.21806059678876824
-0.805961624270805
-0.8044007728972374
-1.1474438551553927
-0.22358416919301002
-0.43727611786685927
0.058401967877657675
-0.13734327687450135
-0.2235544236413909
-0.10290068789671934
0.8012345551316575
1.2240246265740795
1.6905179381228062
0.6838038127414529
0.06871948775727434
-0.2884840273365681
0.21695205945492532
0.5782944103521577
0.9767951207939197
0.5095039571057056
1.065864482113604
0.8788711094421763
0.4675672174217739
-0.10134111212019029
0.6576706738690805
0.974512564120656
0.33273097999239937
0.1492356654742118
0.4550444472044601
-0.19750417951211163
0.008216186335531759
-0.5760781002179811
0.2602885893767164
-0.3827411070668198
0.046709687208182214
0.8000323890902411
1.2024403899040998
1.270424983101247
2.113529902254897
2.409789636645543
1.7806247058840106
0.6627189680385024
-0.4464921054389331
-0.28623133220389185
0.28413338207734534
0.6667752494736967
0.3137421623293342
-0.3491400264297875
-0.1580161174456143
0.6002578028784412
0.2204131170264586
-0.20179936050959255
0.7840898778875619
1.3958289679728149
0.9346565335424121
0.5790247979236355
0.3201335099728457
-0.3969479840947078
0.04424359448136869
-0.6638878653214755
0.0863995990986153
-0.5607794662910979
-0.24518171863442015
0.7406497087546058
1.2584710145180131
1.3666160427841678
2.089011504753666
2.3726529809918167
1.4928867194266786
0.005814538912377192
-1.107468408132546
-1.0114955984259368
-0.035585022755299026
0.6831670262050713
-0.05378343362486752
-0.5309874482083279
-0.509329669066019
0.4093765477975275
0.5750646785480306
0.48983732490496584
1.0901030216455023
1.4926498952066645
1.205420587392269
0.4931117139828865
0.015698647439706715
-0.5962537667937823
-0.11119865623204098
-1.0057989828498441
0.6230546552145771
-0.05477026054268207
0.16714936231487013
0.6154670394880821
1.1451186247815752
1.1127736341623071
1.303162367782157
1.3265025605884155
0.6259249446851205
-0.4214347821785274
-1.6199406853689513
-1.313851081804367
-0.05267296446220329
0.8956235114591
0.33880200699233154
-0.05423480537918893
0.19055205181886584
0.9928311198143606
1.2928102760639488
1.187381114283617
1.399869182234226
1.417454430920171
1.296460227845039
0.6685160622996348
0.5537008393040114
-0.06016423908222242
-0.017302586129265756
-0.8434466049630138
-0.26307186837830226
-0.9089666452886987
-0.3106861055010531
0.8330876551572344
1.9947829375902022
1.7220275043022122
1.3558619252741366
1.1275897296359405
-0.03237637867601193
-0.5874527577336669
-0.46022866767675186
-0.11767165646239008
1.0268660926183597
1.1250738833345624
0.6717003817432261
0.23011637747794417
0.2901477628754563
0.36628019880364177
0.9908845170064469
1.1591923735564278
0.9798514526844807
0.4399107330705999
0.20185214093814424
0.88016917432856
-0.03176522190407122
-0.1648819826887195
-0.6139049172861066
-1.5603870564419036
-0.06384719746866499
-0.3990874249471608
-0.002135805481338103
0.5024805122320753
1.5305359679638486
0.974524046305372
1.0916098284674953
1.3845448988947942
-0.015151248106780856
-0.2670699467173918
0.03142490499883343
0.34568600821037043
1.1894117596493612
1.2031565285079455
1.3319989891990267
1.3628486766144745
0.1732533180106765
0.33797974635415395
0.7756420821300185
0.884293966047854
0.787442937982588
0.30677596157332
-0.3304497565695212
0.02648711290936126
-0.8053591960761329
-0.4538392802909815
-0.5248555549553768
-1.2618700729461902
-0.20040367638832574
-0.2977689454147802
-0.33467512806951455
-0.6822241712022623
0.13042897812801205
3.029646039452866E-4
0.36640049970850697
0.8999949264832073
0.05257993541262566
-0.3744919649689663
-0.5627934774868991
-0.6713237429002621
-0.28438736856285723
-0.4505324802623562
0.10272769113872478
0.0502688031266895
-0.3242639612215302
-0.3039601706183109
0.3165825273787047
0.21452746575014595
-0.14646377443915826
-0.6846516747701965
-1.330352120990005
-1.3091374305187229
-1.2775739936311372
-0.6538602246691365
-0.12058756775916661
-0.5413084924444436
-1.0706514683762334
-0.9145309069801123
-1.7535553532691397
-2.6916234833515937
-1.8737155506765406
-1.5282298011442634
-1.0430598714427233
-0.7983042708458129
-1.1491386868490068
-1.6766867402458314
-2.2202985648589264
-2.2343812233540485
-1.6384300396039353
-1.7108011307734547
-1.1346074852290005
-1.0422577772301633
-1.2261747645840724
-1.2454680634588298
-0.5778965781539639
-0.9840486188766712
-1.3854975703837433
-2.0988816845694758
-2.6112044220612822
-2.2217344702033444
-2.319990363914726
-1.3280770963120974
-0.40669640338214375
-0.8162620140799657
 -8.963943148791547
0.29764171330260436
-1.102875320978298
-0.800471056205559
-2.1422531467484944
-3.0507479827996518
-4.049870721440011
-4.9634599126494106
-5.114694392679209
-4.673202428847022
-5.765597472489365
-5.293610769886021
-4.495232997338671
-4.098598890675932
-4.038758295481554
-4.48428288186685
-4.620334197850887
-5.551488004219636
-5.1824116745380815
-4.190972123029785
-4.729374215390894
-5.018341640440226
-3.9461863470234357
-2.4824335110394884
-3.1774606863432497
-1.9009038686627215
-0.3606237212788136
0.21013985126569146
2.3130892226886512
-1.9462730281825307
-1.5721391041160329
-1.0699413615786848
-1.5807670018123454
-2.11043117633169
-1.9536458873928768
-1.1766467235457236
-0.9549424857174826
-0.05024206030230843
-2.0061337428932147
-2.2150583171321747
-1.0531129383991324
-0.6818024055802999
-0.4635065743989035
-0.2523174030814712
-1.0760846054576316
-1.3935377798497164
-2.1170669020378874
-0.8624284866490723
-1.1236695529042027
-1.6130135926907074
-1.5700946148499875
-1.502937298020915
-2.1082787151068274
-1.2821853564143515
-0.23902152008324135
0.5323266912686523
2.7346923911371794
-2.2711450475911086
-1.512890649730636
-1.0835695430006216
-0.8841627858932101
-0.9710983011859088
-0.4630179703420373
0.279992235689797
0.525662135893792
1.3455658622237625
-0.0822841591641025
-0.5600979473627664
-0.3978330465847789
-1.0726344273486896
-0.8634784386113523
-0.4276926425516721
-1.439410196500819
-0.27191408314855675
-1.5721809512443774
-0.9467516149466199
-0.7811005738230182
-0.41827397839176667
0.06877002472983983
-0.6149250469737944
-1.3558664363854438
-0.4609166962147387
0.2872402039041592
0.28044722434092517
1.934524212618123
-1.299888282511689
-1.2518795901617223
0.28363928367921054
0.359675446781868
0.4081591365942377
0.06283541396217698
-0.36377708612533594
-0.8030502549616657
0.5822897136348356
0.8867374413806026
0.4888190146151756
-0.15802063330772073
-0.7268000399718407
0.07035458612423728
0.4167265123218977
-0.8070425218158335
0.33085219569526164
0.3071450282150277
0.6205943333127977
0.8422135209616336
1.526521036332019
1.6287058891335522
0.4045464180031017
-0.1321000528634122
-0.19539277627234147
-0.20913770442488264
-0.46703287103225666
1.1430692806594267
-1.0436575412438482
-1.9648639927441998
-0.5669219385823911
0.8615362290363661
-0.21846101669226095
0.05939279638701894
-0.09785909656114114
-0.567949729583959
0.13462818328956724
-0.005361545447880855
-0.2691017259312658
-0.3832276782905931
1.324558652017604
1.2385483357514242
0.8262382225506574
-0.44577239408250474
-1.2777534696259816
1.874584062436487
1.6823058677940723
1.0035426616764653
2.0428481282575084
1.5148247593335904
-0.04539765606663317
-0.44384220568753535
-0.6272715362053255
-0.44960545608837993
-0.7117546884689449
1.610135565924031
-1.6071558894342137
-2.203162375404912
-0.9122295278042225
0.07240419795019117
-0.658005767448441
0.037185599493256165
0.12073223884895344
-0.9395397748639359
-1.4878798240427826
-0.8746169009509733
-1.3630703680358995
-0.09469281554760663
0.5923112180517338
0.47741170400045685
0.18580709183511412
-0.06426837705913303
-1.0460702542132971
0.2350606506337979
0.7746328503251935
0.9767885947160027
1.9047219095753534
1.595115294875735
0.6263574012996503
0.26097304385935943
-0.2723900375712017
0.011833046374046108
-0.6286938044196475
1.0863239748359121
-2.002431364613481
-1.7597960078087977
-0.9803635220663643
0.2394986920705345
0.08396731214847888
-0.3028860880016448
-0.5742582628940578
-1.2808019520171587
-0.9991694958092895
0.2225273736541096
-0.22518300503392039
-0.17149877283966533
-0.2804101603534495
-0.36059588195458675
0.12422710391027628
0.3644396310014966
-0.6207247835541106
-0.5754562262872187
-0.5895322469044468
-0.3466001457200747
0.3687233231097716
0.33205987342014726
0.2879148189080777
1.2466165475637803
0.9612657546346699
0.4706764417068817
-0.817857483134025
0.4684349003542164
-2.585482815853732
-1.5353231444883984
-0.9137537858553505
1.0479416731051612
0.8041689079300371
-0.42307420382438565
0.20229136535891915
0.191109844194742
0.2651633813162647
1.1181013143811236
1.0859548895380533
0.7463099404740471
0.6789000154361595
0.5532963118555736
1.2103405004663224
1.1205199719748975
-0.20880293911185502
-0.2103980005850814
0.2087054612475845
0.45397642621538503
0.28235407040546956
-0.09125003022841738
0.27951884220664186
1.5715898166387405
2.2655372173746993
1.18368547061028
-0.3495089815120299
0.25411258023436134
-1.7707418497241165
-1.3959132541425088
0.5572322777444945
1.8358453705615394
0.260758019989651
0.4811352599613399
1.4090003517413972
0.9276202795272347
0.8693060405023849
1.7601084951489363
0.5739961417690649
0.9520069626931403
-0.2825431153062493
-0.7188897392569826
-0.31181181436842703
-0.29331867477994095
-0.9729319295503263
-1.610580959782959
0.4911951842737996
1.4069839442001502
0.922037626599995
1.6686479406129615
0.8504641829920617
0.9858459148536957
1.6255130381229876
0.6451509207138482
-0.25089254918203757
0.1362812114229626
0.5273553636503268
-0.9878307877702046
0.28253705308175664
1.6966996394807112
2.4876172548991704
1.3948401558906092
1.141503475323676
0.4300053036634574
1.3347680243345519
1.7844667247163697
0.41861700686755005
2.015737051449398
1.0011929613212047
0.26898522339839104
0.049598843276668976
-1.7292759908866024
-1.5061751178650333
-0.8920783723562298
0.09596841760883063
0.5736450059683009
0.9159793048026503
1.567218680283901
0.6227087961887094
1.0308973486215178
0.6801336418954682
0.22445912633107074
-0.5412995662718869
-0.33835137300792445
0.4066079974267685
0.010908552401292688
0.3129099567041733
0.672597781640979
1.1641475550448772
1.5898595223045349
1.3760772034004434
1.435445380955914
1.8134019452213266
2.0776389519305587
0.5320630621074456
1.725805113037546
1.3162912065281582
0.13916224071412095
-0.6022511492613448
-2.8212961646900765
-1.3029880930302735
-0.287556303573687
-0.19375793322547766
0.22107352754430293
0.7683185029266689
1.0976157327162188
-0.5961686983070907
-0.4836606177336893
-0.2541071753004889
0.1302950699730982
-0.6034527829586243
0.24479471090717136
0.16660006495024135
0.8045035391883725
1.0053604819428203
0.3386722246065542
1.0985800811741593
1.329763331817416
0.8999463980293817
1.9785424595418335
2.4271644318630115
2.1174180191874745
0.3742125547335249
0.9812729298266156
1.949382536091722
1.1644731661805559
0.033148034540018446
-0.4090031245817947
0.34520755395682184
0.27560341995730686
-0.4704209457148713
-0.33521837123824677
0.4602692561908497
0.7230963344274265
0.11330245533813917
-0.9121340284835963
-0.5946366697782377
-0.24682950910768595
-1.3110072820805942
0.2079007613253745
-0.2177858599792689
0.060029525118397015
0.3110715968089717
0.19183851923095038
1.5170957924663968
1.2504553904054043
0.407014367590126
1.0441868327584507
0.6654315540671403
0.2623588683673633
0.26433971752874885
1.263180606074337
2.9150558382250042
2.318394205519098
1.3603862664995674
1.8956223885117471
1.8511263513384142
1.419584830580488
1.1708439477699626
0.0744132834979131
0.362117478607556
0.8420643130938419
1.5072567745739052
0.31216347710151454
0.10368190856423949
0.4699185663420937
-1.3915028522714605
0.3812195709009526
-1.654532115247671
-1.0079837294914886
-0.2516232898736191
-0.537158269434645
0.7237941877292368
1.4272408405246453
1.3531541419130524
1.359254087671892
0.2193798377352114
0.06858666639686883
0.9048653458785073
1.2252521995545618
2.4507489635742403
2.4469064308661346
1.7448180356740475
1.891996523232898
1.6411175308041697
1.9710135114503895
1.7532917678011706
0.11219239096726587
-0.26472739718563176
0.41974795980504287
1.0366834632077595
-0.010693277194188947
0.3486929182554285
0.6104213749672492
-1.2794096916794482
0.8722521242606619
-1.602358686183548
-0.6778941715233455
0.6587093382846192
0.5735877731183499
0.4364768144425286
0.9175235960578721
1.0301429180962438
0.5064173976847125
1.4528125514913792
0.12359948385869217
0.28878330292351895
0.6670007823197426
1.2036589847753545
1.880809157153684
1.3638069165114197
0.23704407580456555
1.5585242451697148
2.2245268315922586
1.4478818203665482
0.8177195562307965
0.553999518080678
0.5590745785309131
0.9630032018282073
0.745259459402896
0.5507112323714153
0.2715169405540613
-1.163868464751276
1.3078414876988003
-0.6627112297137374
-1.15995740027512
0.2676471940852227
0.9141165146528671
0.6086989673214858
0.702313550829844
0.5741122126816932
-0.20781049438338098
-0.18040871804341435
-1.1192176353905388
-0.5013661653872502
1.0581821430341334
0.8471212523391499
1.1832903674257758
0.2867650988078567
-1.2004818556950378
1.2846992497460372
2.557238752438645
1.2370186459920827
0.49377907505070084
0.21645081394082583
0.44292980847116936
0.5002046240887827
0.7139780350199746
1.3805343545897515
0.554176109101676
-0.6977117617691132
2.045345664326401
-0.2906014042951702
-1.6285389434922743
-0.3650964534382307
-0.8788926173216949
-0.8686939398237806
-0.8464248774253963
0.3049231332958658
0.2706220037597601
-1.2543886577570937
-2.1024420003984265
-0.30474156310341854
1.6944485548749482
0.19419875880230605
0.20807803007507228
-1.5007701933301347
-1.6174966216624953
0.554191516319497
1.132158969011841
0.51089111450008
0.29488071866243154
0.7122640890927656
-0.40942919136455
-1.0210252063858616
-0.22927676868130192
0.670799581588893
0.5805408950760306
-0.5374783412313255
2.283010059166645
0.4480249333329956
-0.7245682314132025
-0.47798693305626955
-0.8294795589089278
-0.6399688107102688
-0.44237736709386766
1.0741965611752025
1.5070200106092229
-0.11289369269237584
-1.607414144547427
-0.704489377440645
-0.0642236714411691
-2.1851195501911285
-1.1690192182073937
-0.9160393951827607
-0.7532888538987584
0.38141850051647513
-0.5780492805284662
-2.1907948025440094
-1.5041962593921117
-0.3114469628460797
-1.2081309446430648
-1.954100375096969
-1.1501218593381426
0.22558932510314872
0.2569792640367002
-1.0375943575826823
0.614840646732677
0.3164384235702324
-0.4096996782268169
-0.7234393318017798
-1.0665741560857305
-0.15771151655969506
0.43611239595020523
0.8132450009088572
1.304192750861315
0.7640443028639263
-0.21134627531686934
0.11910476122950774
-0.18442180898297883
-2.1441493783232515
-1.2024703190834565
-0.5674897592175221
-1.134873039338213
0.5345828097331479
-0.15633431656175614
-1.2211197063038715
-0.4267219558469067
0.4619080996615567
-0.7026238931393002
-2.271116986878866
-2.5561561230723564
0.6236731945020417
1.3175391563482552
-0.0552598313899661
0.6935523801714284
0.9785706105082833
0.45645043878878716
-0.6597164837291558
-0.9906572602522673
-0.0532938566615646
1.4892018660405726
1.2895902024025543
0.11324773245703743
0.4297462440393161
0.8312816925495101
0.3207274281712409
0.15255126947218534
-0.6476049491669454
-0.8014505206437953
-1.0400378013593352
-1.919753613644386
-0.16570249020893338
0.6070443704110013
0.8960051067623688
0.5452801712872435
0.7987469089024909
0.5394614606999231
-0.44745070937611514
-1.0115751841540959
0.35892826230097175
1.1651222642959584
-0.11941499421593202
-0.021871814261317315
0.8630233259131544
0.8978892644572083
0.16680457069290994
-0.9312393343052037
0.10344357850991603
2.0155245263989543
0.7777294012290079
-0.46233866339538787
-0.5443579138060546
1.367551172257048
0.5476515068324694
0.4287106628811082
0.8907060594812951
-0.1871735574100256
0.010098140309305711
-0.8178158581930872
0.40132365754972443
0.6837742303448093
0.5165330677727397
-0.29120046883063877
0.5104477128233561
1.4237015010661838
1.9305316000983976
1.9028455893255058
1.3282214925062514
1.1029825053209925
0.7312513390271123
0.5895708488270716
0.410783487363808
0.780034052636695
0.08956306383472477
-0.7727757606230254
-0.1941279345921102
0.1995430811111094
-0.8582359981548137
-0.9172723917301
-0.3695081895363235
1.0615338727000216
-0.5089863617568899
-0.7978621084779325
-0.00630103755358269
-0.8514534735602034
0.4261525173567428
0.07510884358285776
-0.8688489108740193
0.2841655946882816
0.20703255719061403
-0.745128263428198
-0.4517332291568422
0.19583070635604688
1.0073543579882818
1.4459262189472373
1.322117380265884
0.9038819058032789
0.02017092866689721
0.8177227014722407
-0.47689165744344814
-0.8729046451226877
-1.192681649925832
-0.7864648230376503
-0.1514118424061059
-0.32912259909281777
-0.6457322766337368
0.29016472572427476
0.21656123689373238
0.07287214295352566
-0.922214320319022
-1.028843762650506
-0.8008882378926375
-0.8951419696237922
-0.11302816331449454
-0.680366868925179
-2.426567314960467
-1.0143583597593104
-0.44346640542371557
-1.0363411722415439
-0.722697592794444
0.15062408339344086
0.5477584985519269
0.2739821571744038
1.6695705672371501
1.0656444518165973
0.04355370553252295
-0.35974349957788604
-1.1741220592543784
-1.3687149475119347
-2.082763259765235
-0.6708604865450083
0.5223872373476772
0.6939004871855717
0.9343961771686661
1.0798627769830627
-0.7386306776098371
-1.1044718408563448
-0.2893474127867527
0.8165862308926517
0.42790308482743494
0.8129078768787696
1.1823172698473772
0.5151992978491032
-0.33880399750164414
-1.0265265220552666
-1.1085468267729601
-1.703535223927274
-0.20320069002515462
1.6369148436965624
0.6976596606216179
-0.757045010861562
1.430467682977257
0.7778854721016577
-0.5442242905372053
-1.7528086735602797
1.0971978326973602
1.1986653511433822
0.5609147983974375
0.9837921491502655
0.9365907337730794
0.7347447688001623
1.3904231489128247
2.627319748295734
1.9349711504643416
0.13767878025875496
-0.5657250197344958
0.35353178922144285
0.8030465769082089
1.5628368712482423
2.465732919838495
0.9417538117111063
0.8357984474104517
0.7150566885328412
0.2115416048894279
0.035649278518287704
0.7846038051813573
1.894461017339742
1.8109686560884972
1.222575416519724
1.6261671386512306
1.4194444590172446
0.14496011355651278
-0.010375710492882398
1.4393928857033644
1.540636259168101
0.7557595857094714
0.9889644034788286
0.35306598336069084
0.1197568192202182
0.14056530578516566
0.80334055646245
1.3501620889011896
0.6380298110991169
0.19887087337730938
1.1788586088891833
1.2332881354278664
1.0966362863553036
1.5070881648552887
0.9563310905855856
1.7534985648363068
1.6676264553775935
1.4963291341669827
1.4321872703951082
1.8408291327515072
2.2988751982647586
1.8641111966783943
1.5052967843456984
0.8237938203771261
0.7863612049607684
0.3241546287292368
1.074362496911309
2.731141470533122
2.6019268109271905
1.0656749484250194
0.20355759341800286
-0.5401705697471327
-0.6320746513917733
-1.2334643581529603
-1.1388740848727101
0.036216092954623164
0.1704966370202305
0.16205830912490193
0.6249896212625977
0.01070068239435016
-0.6239396019301381
-0.843184014303407
-1.0841181893657563
0.5945871976177901
0.7715111710468185
0.4778594632891792
0.09761572525849561
-0.27818236711678807
0.006520709590934222
-0.23200243832087217
0.2462165837960829
0.2591324401398666
0.6521717639228686
0.7497913920672877
2.1142425683622137
3.161194579754366
3.0478878067357784
0.21657382470224637
-1.7900509296709048
-2.7038751914088577
-1.7125019200169687
-2.1260969992156435
-2.6228533596249357
-2.1111413738539637
-1.8634852322299564
-2.015359799588184
-1.941860398006002
-2.786877244766396
-3.4354190798777102
-3.665155069706504
-3.5582012726282644
-2.397964355162703
-1.705943203540626
-2.1408782742241472
-3.1896605023883007
-3.5293146136346305
-3.1980710495989633
-2.5395768362525866
-1.4709458562032414
-0.41367472023704865
0.34844375454565824
0.8671855346642455
2.0187305525253576
 10.450271937294314
-3.749934967938967
-2.8658450714637174
-3.746021982242512
-3.5251252020378807
-2.1597657035274205
-2.8024008796299356
-4.036255067318495
-3.4754053348023426
-4.836016311787875
-6.21721616711461
-6.4458278065073555
-7.140392258408882
-5.761448329439726
-4.31071183932276
-4.26930351444415
-3.4455353067455774
-2.8616183147348697
-2.3965927081598712
-2.5100997298737004
-1.9468584226509726
-1.6509321022771022
-2.539368663266869
-2.3494382700328376
-1.2112271451553813
-0.4546880444341242
-0.7998071730641144
2.3048346734529988
3.809385315175208
-4.522206355174711
-2.983265830429937
-1.8254115039895973
-2.145480519817925
-0.6621333052835101
-0.27924022475914595
-0.653940897018474
0.3364248373193439
-0.43566597561206766
-1.8548072616519569
-1.9544612158957082
-1.6575015445334698
-0.6324317876009365
-0.20660467904349927
0.6903718958587741
0.513263656116236
1.439273400446349
1.3144859924046821
1.0761158968529803
0.9893049766152655
-0.07186529167672188
-1.4191738073326985
-1.420843825697534
-0.4569001121860199
0.18279674771116317
-0.19337662716055407
0.5133383393442538
1.6811752437285743
-4.639527645731059
-2.1799166166116164
-0.4884605236844163
-2.3432484543335987
-1.9156318395575114
-1.1541942432530075
-0.8657799177054831
-0.6330082906296916
-0.1860906643177739
-2.2621259243654475
-1.683132562264838
-1.339823736566859
-1.2204039985571942
-1.643049470028339
-0.8026453289587893
-0.3090754883070825
0.805538723631211
0.9282651573122126
1.9202502312462109
2.100459925081727
1.5708131367630636
0.41776713292151435
0.5220002223187973
1.279077555002628
1.2122229994073503
-0.34150346110637736
-1.0846440784749651
-0.02512420573886246
-3.917656290688965
-2.3159571847368667
-1.4691682532371333
-1.4853190735292652
-2.784036947420922
-1.741281000452411
-1.505120444311869
-1.6242780754356758
-1.2856009976255343
-1.1139442565862065
-0.46815079571848234
-1.1950340823723065
-0.7746579312395072
-0.4297385130124607
1.2285827477458835
0.461761177012848
0.718461604019783
1.8440645283571546
2.7760428467187026
1.4589323738310103
2.6282856034729263
1.6588367223899763
0.8231657871340158
0.11701588526042156
-0.9299549109439544
-2.0621495521319213
-2.635240026606477
-1.2019219407438737
-5.288568959150188
-3.575250184744824
-1.9984879185409163
-2.333863845397337
-2.334792878744709
-1.6817321863111603
-1.7401578442969525
-2.2688531205342146
-2.5101603588017403
-1.655741399635484
-2.4330667694638786
-2.225414358055559
-2.8090640491642684
-0.8655798936821163
1.2843664306401557
0.30766335269387257
-0.5273326194892441
0.17124922033077952
1.9587396597373998
0.7330842671645544
1.4389659873479905
0.9826236169015079
0.9387628084929783
0.3930116927102507
-0.9929880372701685
-0.7978165065193326
-1.1115782902158926
0.25938656545589445
-5.24358822148505
-3.337845566075188
-2.096871551778555
-2.2819918174950393
-0.7543236416747615
0.14951814803539007
-0.029222696613298963
-1.9844317338863537
-2.102531910500654
-0.7670788180643647
-0.44226323112383586
-0.7395929388575518
-1.067081857271946
-0.7621963247207539
0.12403619125659503
-0.5677575916953924
-0.31340127174522214
0.29240880152466836
1.4295235560813568
1.0946546150040164
1.8008799298720908
1.1064990913512274
2.0518999864349627
1.6987217817563152
0.017526976674166948
0.551672582175335
0.32259645925925673
1.2989373141948233
-5.156094899231928
-2.838389746804988
-1.7350007805824754
-0.8721264718541222
0.874064897791898
0.8836266470790322
0.9760055951789809
-0.6557012756895417
-0.5792683619366894
-0.21389174634420272
0.7310311436291659
0.49137852314461283
-0.11488399231035575
-0.025835839118161657
0.742206633722654
0.875588986494489
-0.10121417150567044
-0.15642111350887772
0.9855601531674223
1.5619128932817297
2.484749206277999
1.2477849501385678
1.769529547734673
1.3695280735909416
0.6492486734228442
0.9906541771888991
0.6443636355808584
-0.3330123185333136
-5.008980181937969
-2.229285811683255
-0.5031156876410137
1.3631773181168256
1.8518535943702417
0.4471431988057262
0.7591961072031145
-0.05052747929124462
0.22760614808906837
-0.3100272075943921
1.3286991691111112
2.289548174506993
1.3170372279777076
0.714698807108034
1.6040086367582085
1.245701224715763
1.1912334362235002
0.6780568431553267
1.139014545264754
1.2755752952203792
2.0694546478927887
1.4031733200235015
1.826910254643035
1.5150643659576155
-0.02618254834762117
-0.5134464864543301
-1.5502029186248734
-2.4980988901232104
-2.110592285423261
-0.9105150719123725
0.5230553144930238
0.11006262424874821
0.03361217791300344
-1.3909094325449722
0.1596081667234193
1.9728594215646944
0.2604402671173715
0.06130026553946128
-0.047144284662131206
0.17345210716575718
-1.1667040115476228
-1.1142560432394413
0.8853726566454805
0.6171008947787566
-0.004892125937412769
0.1847893823091857
0.6844239992545447
1.301280021448869
1.5276626535943993
2.782000397588737
1.9025799341256484
1.0593249492622814
0.041393455622293976
-0.64223120215461
-1.554220479726184
-1.853855893803007
-3.930617758777244
-2.5223022264150003
-0.6943425057508328
-0.07237647242473545
-0.8177320811050947
-0.29002989320295186
1.704411402181894
2.073852225425626
0.07018826623833208
-0.13478983011404472
0.2222095799243841
1.651061338268404
0.6202145499313756
0.936156250706939
1.2748280320834775
-0.9083350162776218
-1.3104419566631487
-0.9069148604749042
-0.3705944913333299
-0.37976915911259873
0.7376856961986569
2.491063154505945
2.414464533236535
0.9134367531250416
-0.7749924211788513
-0.9836866255651348
-2.4714423882888044
-2.1376082541464343
-2.670131917368555
-2.447098796975515
-0.9035034841435908
-0.23417320207475906
0.1322652562688435
0.5639086593514874
1.9320910931031519
1.5868346744365003
0.12104632584592302
0.3563281563652664
1.035465230586915
0.969758079335461
-0.43163637585220427
-0.6630327868907054
0.21669783475664645
-2.2660509019139217
-2.707685146837093
-0.8486981524444406
-0.013767742257811752
-0.19706812811264973
0.26385266439671806
0.5581177679886247
0.7874596340544447
0.10531899895428219
-0.18029094949555793
-1.0499419766560152
-2.4928100872257444
-2.388768763665042
-3.382220122898814
-1.7618522841725208
-0.5160420262289002
-0.6050498961717071
0.8860202783971963
0.4316610795372654
1.1738825964137198
1.4329755391998773
0.5214168424178354
1.2888110693493247
0.8144374720619482
-0.6440844263639016
-0.8910412697596176
-0.25490608333670023
1.4656349331307195
0.10112522591207306
-0.4786015526128385
-0.0023668603054080232
-0.44142167949321204
-1.0386362487970706
-0.6536906285715135
-0.5086662098509731
1.1459766750204436
0.7157697073972318
0.27973213296962146
-1.0951223044904035
-2.003697073237803
-2.2974878436194097
-3.490648019991676
-1.0403743997149661
0.3173497417645747
-0.06324679900772685
1.1926448804422933
0.4141270689106674
0.48637144771448015
0.8982896764121259
-0.3628663044758688
1.5995215156932134
